{"learner":{"attributes":{"scikit_learn":"{\"_estimator_type\": \"regressor\"}"},"feature_names":["cloud_cover_badajoz","cloud_cover_c_real","cloud_cover_cadiz","cloud_cover_cordoba","cloud_cover_huelva","cloud_cover_lisbon","cloud_cover_malaga","cloud_cover_seville","precipitation_badajoz","precipitation_c_real","precipitation_cadiz","precipitation_cordoba","precipitation_huelva","precipitation_lisbon","precipitation_malaga","precipitation_seville","pressure_msl_badajoz","pressure_msl_c_real","pressure_msl_cadiz","pressure_msl_cordoba","pressure_msl_huelva","pressure_msl_lisbon","pressure_msl_malaga","pressure_msl_seville","relative_humidity_2m_badajoz","relative_humidity_2m_c_real","relative_humidity_2m_cadiz","relative_humidity_2m_cordoba","relative_humidity_2m_huelva","relative_humidity_2m_lisbon","relative_humidity_2m_malaga","relative_humidity_2m_seville","temperature_2m_badajoz","temperature_2m_c_real","temperature_2m_cadiz","temperature_2m_cordoba","temperature_2m_huelva","temperature_2m_lisbon","temperature_2m_malaga","wind_direction_10m_badajoz","wind_direction_10m_c_real","wind_direction_10m_cadiz","wind_direction_10m_cordoba","wind_direction_10m_huelva","wind_direction_10m_lisbon","wind_direction_10m_malaga","wind_direction_10m_seville","wind_speed_10m_badajoz","wind_speed_10m_c_real","wind_speed_10m_cadiz","wind_speed_10m_cordoba","wind_speed_10m_huelva","wind_speed_10m_lisbon","wind_speed_10m_malaga","wind_speed_10m_seville","hour","sin_hour","cos_hour","temp_lag_1h","temp_lag_3h","temp_lag_6h","temp_lag_12h","temp_lag_24h","temp_rolling_mean_6h","temp_rolling_mean_24h"],"feature_types":["float","float","float","float","float","float","float","float","float","float","float","float","float","float","float","float","float","float","float","float","float","float","float","float","float","float","float","float","float","float","float","float","float","float","float","float","float","float","float","float","float","float","float","float","float","float","float","float","float","float","float","float","float","float","float","int","float","float","float","float","float","float","float","float","float"],"gradient_booster":{"model":{"cats":{"enc":[],"feature_segments":[],"sorted_idx":[]},"gbtree_model_param":{"num_parallel_tree":"1","num_trees":"500"},"iteration_indptr":[0,1,2,3,4,5,6,7,8,9,10,11,12,13,14,15,16,17,18,19,20,21,22,23,24,25,26,27,28,29,30,31,32,33,34,35,36,37,38,39,40,41,42,43,44,45,46,47,48,49,50,51,52,53,54,55,56,57,58,59,60,61,62,63,64,65,66,67,68,69,70,71,72,73,74,75,76,77,78,79,80,81,82,83,84,85,86,87,88,89,90,91,92,93,94,95,96,97,98,99,100,101,102,103,104,105,106,107,108,109,110,111,112,113,114,115,116,117,118,119,120,121,122,123,124,125,126,127,128,129,130,131,132,133,134,135,136,137,138,139,140,141,142,143,144,145,146,147,148,149,150,151,152,153,154,155,156,157,158,159,160,161,162,163,164,165,166,167,168,169,170,171,172,173,174,175,176,177,178,179,180,181,182,183,184,185,186,187,188,189,190,191,192,193,194,195,196,197,198,199,200,201,202,203,204,205,206,207,208,209,210,211,212,213,214,215,216,217,218,219,220,221,222,223,224,225,226,227,228,229,230,231,232,233,234,235,236,237,238,239,240,241,242,243,244,245,246,247,248,249,250,251,252,253,254,255,256,257,258,259,260,261,262,263,264,265,266,267,268,269,270,271,272,273,274,275,276,277,278,279,280,281,282,283,284,285,286,287,288,289,290,291,292,293,294,295,296,297,298,299,300,301,302,303,304,305,306,307,308,309,310,311,312,313,314,315,316,317,318,319,320,321,322,323,324,325,326,327,328,329,330,331,332,333,334,335,336,337,338,339,340,341,342,343,344,345,346,347,348,349,350,351,352,353,354,355,356,357,358,359,360,361,362,363,364,365,366,367,368,369,370,371,372,373,374,375,376,377,378,379,380,381,382,383,384,385,386,387,388,389,390,391,392,393,394,395,396,397,398,399,400,401,402,403,404,405,406,407,408,409,410,411,412,413,414,415,416,417,418,419,420,421,422,423,424,425,426,427,428,429,430,431,432,433,434,435,436,437,438,439,440,441,442,443,444,445,446,447,448,449,450,451,452,453,454,455,456,457,458,459,460,461,462,463,464,465,466,467,468,469,470,471,472,473,474,475,476,477,478,479,480,481,482,483,484,485,486,487,488,489,490,491,492,493,494,495,496,497,498,499,500],"tree_info":[0,0,0,0,0,0,0,0,0,0,0,0,0,0,0,0,0,0,0,0,0,0,0,0,0,0,0,0,0,0,0,0,0,0,0,0,0,0,0,0,0,0,0,0,0,0,0,0,0,0,0,0,0,0,0,0,0,0,0,0,0,0,0,0,0,0,0,0,0,0,0,0,0,0,0,0,0,0,0,0,0,0,0,0,0,0,0,0,0,0,0,0,0,0,0,0,0,0,0,0,0,0,0,0,0,0,0,0,0,0,0,0,0,0,0,0,0,0,0,0,0,0,0,0,0,0,0,0,0,0,0,0,0,0,0,0,0,0,0,0,0,0,0,0,0,0,0,0,0,0,0,0,0,0,0,0,0,0,0,0,0,0,0,0,0,0,0,0,0,0,0,0,0,0,0,0,0,0,0,0,0,0,0,0,0,0,0,0,0,0,0,0,0,0,0,0,0,0,0,0,0,0,0,0,0,0,0,0,0,0,0,0,0,0,0,0,0,0,0,0,0,0,0,0,0,0,0,0,0,0,0,0,0,0,0,0,0,0,0,0,0,0,0,0,0,0,0,0,0,0,0,0,0,0,0,0,0,0,0,0,0,0,0,0,0,0,0,0,0,0,0,0,0,0,0,0,0,0,0,0,0,0,0,0,0,0,0,0,0,0,0,0,0,0,0,0,0,0,0,0,0,0,0,0,0,0,0,0,0,0,0,0,0,0,0,0,0,0,0,0,0,0,0,0,0,0,0,0,0,0,0,0,0,0,0,0,0,0,0,0,0,0,0,0,0,0,0,0,0,0,0,0,0,0,0,0,0,0,0,0,0,0,0,0,0,0,0,0,0,0,0,0,0,0,0,0,0,0,0,0,0,0,0,0,0,0,0,0,0,0,0,0,0,0,0,0,0,0,0,0,0,0,0,0,0,0,0,0,0,0,0,0,0,0,0,0,0,0,0,0,0,0,0,0,0,0,0,0,0,0,0,0,0,0,0,0,0,0,0,0,0,0,0,0,0,0,0,0,0,0,0,0,0,0,0,0,0,0,0,0,0,0,0,0,0,0,0,0,0,0,0,0,0,0,0,0,0,0,0,0,0,0,0,0,0,0,0,0,0,0,0,0,0,0,0,0,0,0,0,0],"trees":[{"base_weights":[7.3860235E-7,-3.4902682E0,3.8829248E0,-4.584474E0,-1.1473515E0,1.9882361E0,5.9508934E0,-3.000884E-1,-1.9808015E-1,-9.601697E-2,1.3864439E-3,3.6400497E-2,1.4279172E-1,2.3332278E-1,3.7855846E-1],"categories":[],"categories_nodes":[],"categories_segments":[],"categories_sizes":[],"default_left":[0,0,0,0,0,0,0,0,0,0,0,0,0,0,0],"id":0,"left_children":[1,3,5,7,9,11,13,-1,-1,-1,-1,-1,-1,-1,-1],"loss_changes":[4.5807275E3,4.5106665E2,6.1507324E2,8.3041016E1,5.273597E1,9.085736E1,1.2283618E2,0E0,0E0,0E0,0E0,0E0,0E0,0E0,0E0],"parents":[2147483647,0,0,1,1,2,2,3,3,4,4,5,5,6,6],"right_children":[2,4,6,8,10,12,14,-1,-1,-1,-1,-1,-1,-1,-1],"split_conditions":[1.46E1,1.48E1,2.105E1,1.055E1,1.695E1,1.74415E1,2.29E1,-3.000884E-1,-1.9808015E-1,-9.601697E-2,1.3864439E-3,3.6400497E-2,1.4279172E-1,2.3332278E-1,3.7855846E-1],"split_indices":[32,58,58,36,58,37,36,0,0,0,0,0,0,0,0],"split_type":[0,0,0,0,0,0,0,0,0,0,0,0,0,0,0],"sum_hessian":[3.36E2,1.77E2,1.59E2,1.2E2,5.7E1,8.4E1,7.5E1,3.4E1,8.6E1,3.4E1,2.3E1,3.5E1,4.9E1,4.4E1,3.1E1],"tree_param":{"num_deleted":"0","num_feature":"65","num_nodes":"15","size_leaf_vector":"1"}},{"base_weights":[5.892377E-4,-3.260508E0,3.7601945E0,-4.352802E0,-1.0938025E0,2.021789E0,5.7843986E0,-2.3916219E-1,-1.2628965E-1,-9.2206314E-2,4.522095E-3,4.5638286E-2,1.4010154E-1,3.6401755E-1,2.2712599E-1],"categories":[],"categories_nodes":[],"categories_segments":[],"categories_sizes":[],"default_left":[0,0,0,0,0,0,0,0,0,0,0,0,0,0,0],"id":1,"left_children":[1,3,5,7,9,11,13,-1,-1,-1,-1,-1,-1,-1,-1],"loss_changes":[4.1440283E3,4.2360754E2,5.407705E2,8.228931E1,5.525792E1,7.1858765E1,1.006897E2,0E0,0E0,0E0,0E0,0E0,0E0,0E0,0E0],"parents":[2147483647,0,0,1,1,2,2,3,3,4,4,5,5,6,6],"right_children":[2,4,6,8,10,12,14,-1,-1,-1,-1,-1,-1,-1,-1],"split_conditions":[1.47E1,1.47E1,1.815E1,1.16E1,1.695E1,1.895E1,2.7116573E1,-2.3916219E-1,-1.2628965E-1,-9.2206314E-2,4.522095E-3,4.5638286E-2,1.4010154E-1,3.6401755E-1,2.2712599E-1],"split_indices":[32,58,35,35,58,58,31,0,0,0,0,0,0,0,0],"split_type":[0,0,0,0,0,0,0,0,0,0,0,0,0,0,0],"sum_hessian":[3.36E2,1.8E2,1.56E2,1.19E2,6.1E1,8.5E1,7.1E1,9.5E1,2.4E1,3.7E1,2.4E1,3.6E1,4.9E1,3E1,4.1E1],"tree_param":{"num_deleted":"0","num_feature":"65","num_nodes":"15","size_leaf_vector":"1"}},{"base_weights":[1.520454E-3,-3.1570594E0,3.5154312E0,-4.1460657E0,-1.039356E0,1.8800784E0,5.5389004E0,-2.738962E-1,-1.7813024E-1,-9.0918176E-2,-3.8796726E-3,6.6825636E-2,1.8012184E-1,2.126209E-1,3.406912E-1],"categories":[],"categories_nodes":[],"categories_segments":[],"categories_sizes":[],"default_left":[0,0,0,0,0,0,0,0,0,0,0,0,0,0,0],"id":2,"left_children":[1,3,5,7,9,11,13,-1,-1,-1,-1,-1,-1,-1,-1],"loss_changes":[3.7514504E3,3.6849768E2,5.1904016E2,7.451196E1,4.331367E1,7.944464E1,8.747656E1,0E0,0E0,0E0,0E0,0E0,0E0,0E0,0E0],"parents":[2147483647,0,0,1,1,2,2,3,3,4,4,5,5,6,6],"right_children":[2,4,6,8,10,12,14,-1,-1,-1,-1,-1,-1,-1,-1],"split_conditions":[1.46E1,1.48E1,2.085E1,1.055E1,1.66E1,2.105E1,2.255E1,-2.738962E-1,-1.7813024E-1,-9.0918176E-2,-3.8796726E-3,6.6825636E-2,1.8012184E-1,2.126209E-1,3.406912E-1],"split_indices":[32,58,36,36,58,58,58,0,0,0,0,0,0,0,0],"split_type":[0,0,0,0,0,0,0,0,0,0,0,0,0,0,0],"sum_hessian":[3.36E2,1.77E2,1.59E2,1.2E2,5.7E1,8.9E1,7E1,3.4E1,8.6E1,3.1E1,2.6E1,6.9E1,2E1,3.7E1,3.3E1],"tree_param":{"num_deleted":"0","num_feature":"65","num_nodes":"15","size_leaf_vector":"1"}},{"base_weights":[2.196425E-3,-3.0022783E0,3.344661E0,-3.9424977E0,-9.890231E-1,1.7663436E0,5.2491827E0,-2.605927E-1,-1.6932605E-1,-8.283165E-2,1.2892009E-3,3.676964E-2,1.2600419E-1,1.978798E-1,3.2154185E-1],"categories":[],"categories_nodes":[],"categories_segments":[],"categories_sizes":[],"default_left":[0,0,0,0,0,0,0,0,0,0,0,0,0,0,0],"id":3,"left_children":[1,3,5,7,9,11,13,-1,-1,-1,-1,-1,-1,-1,-1],"loss_changes":[3.3943137E3,3.3303735E2,4.7167847E2,6.774341E1,3.9337433E1,6.730588E1,8.443628E1,0E0,0E0,0E0,0E0,0E0,0E0,0E0,0E0],"parents":[2147483647,0,0,1,1,2,2,3,3,4,4,5,5,6,6],"right_children":[2,4,6,8,10,12,14,-1,-1,-1,-1,-1,-1,-1,-1],"split_conditions":[1.46E1,1.48E1,1.815E1,1.055E1,1.695E1,1.895E1,2.255E1,-2.605927E-1,-1.6932605E-1,-8.283165E-2,1.2892009E-3,3.676964E-2,1.2600419E-1,1.978798E-1,3.2154185E-1],"split_indices":[32,58,35,36,58,58,58,0,0,0,0,0,0,0,0],"split_type":[0,0,0,0,0,0,0,0,0,0,0,0,0,0,0],"sum_hessian":[3.36E2,1.77E2,1.59E2,1.2E2,5.7E1,8.8E1,7.1E1,3.4E1,8.6E1,3.4E1,2.3E1,3.8E1,5E1,3.6E1,3.5E1],"tree_param":{"num_deleted":"0","num_feature":"65","num_nodes":"15","size_leaf_vector":"1"}},{"base_weights":[2.5934705E-3,-2.9598176E0,3.072064E0,-4.196579E0,-1.6742586E0,1.5001142E0,4.913845E0,-2.2411342E-1,-1.1933758E-1,-1.0944785E-1,-8.463028E-3,2.2272049E-2,1.1780187E-1,1.9200318E-1,3.1351465E-1],"categories":[],"categories_nodes":[],"categories_segments":[],"categories_sizes":[],"default_left":[0,0,0,0,0,0,0,0,0,0,0,0,0,0,0],"id":4,"left_children":[1,3,5,7,9,11,13,-1,-1,-1,-1,-1,-1,-1,-1],"loss_changes":[3.073445E3,2.6644177E2,4.732296E2,3.4285156E1,6.624681E1,8.109796E1,8.661792E1,0E0,0E0,0E0,0E0,0E0,0E0,0E0,0E0],"parents":[2147483647,0,0,1,1,2,2,3,3,4,4,5,5,6,6],"right_children":[2,4,6,8,10,12,14,-1,-1,-1,-1,-1,-1,-1,-1],"split_conditions":[1.43E1,1.34E1,2.105E1,1.34E1,1.66E1,1.74415E1,2.29E1,-2.2411342E-1,-1.1933758E-1,-1.0944785E-1,-8.463028E-3,2.2272049E-2,1.1780187E-1,1.9200318E-1,3.1351465E-1],"split_indices":[32,58,58,36,58,37,36,0,0,0,0,0,0,0,0],"split_type":[0,0,0,0,0,0,0,0,0,0,0,0,0,0,0],"sum_hessian":[3.36E2,1.71E2,1.65E2,8.6E1,8.5E1,9E1,7.5E1,7.3E1,1.3E1,6.3E1,2.2E1,4.1E1,4.9E1,4.4E1,3.1E1],"tree_param":{"num_deleted":"0","num_feature":"65","num_nodes":"15","size_leaf_vector":"1"}},{"base_weights":[3.0103934E-3,-2.6687322E0,3.083153E0,-3.8333232E0,-1.2782719E0,1.6972889E0,4.8720446E0,-2.0629573E-1,-9.696291E-2,-1.0653492E-1,-1.8755725E-2,5.9394147E-2,1.5647818E-1,1.9202518E-1,3.0253232E-1],"categories":[],"categories_nodes":[],"categories_segments":[],"categories_sizes":[],"default_left":[0,0,0,0,0,0,0,0,0,0,0,0,0,0,0],"id":5,"left_children":[1,3,5,7,9,11,13,-1,-1,-1,-1,-1,-1,-1,-1],"loss_changes":[2.7815183E3,2.8819653E2,3.809591E2,4.6309204E1,6.387027E1,6.1947266E1,5.9435303E1,0E0,0E0,0E0,0E0,0E0,0E0,0E0,0E0],"parents":[2147483647,0,0,1,1,2,2,3,3,4,4,5,5,6,6],"right_children":[2,4,6,8,10,12,14,-1,-1,-1,-1,-1,-1,-1,-1],"split_conditions":[1.47E1,1.355E1,2.1E1,1.345E1,1.35E1,2.105E1,2.29E1,-2.0629573E-1,-9.696291E-2,-1.0653492E-1,-1.8755725E-2,5.9394147E-2,1.5647818E-1,1.9202518E-1,3.0253232E-1],"split_indices":[32,58,36,36,36,58,58,0,0,0,0,0,0,0,0],"split_type":[0,0,0,0,0,0,0,0,0,0,0,0,0,0,0],"sum_hessian":[3.36E2,1.8E2,1.56E2,9.7E1,8.3E1,8.9E1,6.7E1,8.3E1,1.4E1,4.2E1,4.1E1,6.7E1,2.2E1,3.8E1,2.9E1],"tree_param":{"num_deleted":"0","num_feature":"65","num_nodes":"15","size_leaf_vector":"1"}},{"base_weights":[3.696105E-3,-2.4083538E0,3.1002216E0,-3.4850972E0,-8.513462E-1,1.6906562E0,4.5646152E0,-2.080893E-1,-1.211861E-1,-7.119808E-2,2.6011467E-2,3.1190306E-2,1.1111545E-1,1.7844737E-1,2.8488353E-1],"categories":[],"categories_nodes":[],"categories_segments":[],"categories_sizes":[],"default_left":[0,0,0,0,0,0,0,0,0,0,0,0,0,0,0],"id":6,"left_children":[1,3,5,7,9,11,13,-1,-1,-1,-1,-1,-1,-1,-1],"loss_changes":[2.524511E3,3.155675E2,2.977782E2,7.035376E1,6.2786224E1,4.2287643E1,6.0891968E1,0E0,0E0,0E0,0E0,0E0,0E0,0E0,0E0],"parents":[2147483647,0,0,1,1,2,2,3,3,4,4,5,5,6,6],"right_children":[2,4,6,8,10,12,14,-1,-1,-1,-1,-1,-1,-1,-1],"split_conditions":[1.77E1,1.32E1,2.065E1,1.31E1,1.465E1,1.57E1,2.325E1,-2.080893E-1,-1.211861E-1,-7.119808E-2,2.6011467E-2,3.1190306E-2,1.1111545E-1,1.7844737E-1,2.8488353E-1],"split_indices":[58,36,36,58,35,32,36,0,0,0,0,0,0,0,0],"split_type":[0,0,0,0,0,0,0,0,0,0,0,0,0,0,0],"sum_hessian":[3.36E2,1.89E2,1.47E2,1.11E2,7.8E1,7.6E1,7.1E1,6.6E1,4.5E1,5.5E1,2.3E1,2.6E1,5E1,4E1,3.1E1],"tree_param":{"num_deleted":"0","num_feature":"65","num_nodes":"15","size_leaf_vector":"1"}},{"base_weights":[4.1971435E-3,-2.5496273E0,2.6503031E0,-3.6234963E0,-1.4336246E0,1.3461868E0,4.334203E0,-1.9265144E-1,-1.0102707E-1,-9.439382E-2,-5.364408E-3,2.3833916E-2,1.0280182E-1,1.7579389E-1,2.8660092E-1],"categories":[],"categories_nodes":[],"categories_segments":[],"categories_sizes":[],"default_left":[0,0,0,0,0,0,0,0,0,0,0,0,0,0,0],"id":7,"left_children":[1,3,5,7,9,11,13,-1,-1,-1,-1,-1,-1,-1,-1],"loss_changes":[2.284099E3,2.0093701E2,3.5870142E2,2.422461E1,5.161165E1,5.7655853E1,6.2205444E1,0E0,0E0,0E0,0E0,0E0,0E0,0E0,0E0],"parents":[2147483647,0,0,1,1,2,2,3,3,4,4,5,5,6,6],"right_children":[2,4,6,8,10,12,14,-1,-1,-1,-1,-1,-1,-1,-1],"split_conditions":[1.43E1,1.34E1,1.815E1,1.16E1,1.66E1,1.895E1,2.35E1,-1.9265144E-1,-1.0102707E-1,-9.439382E-2,-5.364408E-3,2.3833916E-2,1.0280182E-1,1.7579389E-1,2.8660092E-1],"split_indices":[32,58,35,35,58,58,58,0,0,0,0,0,0,0,0],"split_type":[0,0,0,0,0,0,0,0,0,0,0,0,0,0,0],"sum_hessian":[3.36E2,1.71E2,1.65E2,8.6E1,8.5E1,9.4E1,7.1E1,7.4E1,1.2E1,6.3E1,2.2E1,4.3E1,5.1E1,4.7E1,2.4E1],"tree_param":{"num_deleted":"0","num_feature":"65","num_nodes":"15","size_leaf_vector":"1"}},{"base_weights":[4.5676357E-3,-2.0410578E0,3.0057802E0,-2.9733534E0,-3.2939813E-1,1.8806337E0,4.4183745E0,-1.8231736E-1,-9.946685E-2,-4.176129E-2,4.2908754E-2,7.114811E-2,1.490468E-1,1.7327651E-1,2.691785E-1],"categories":[],"categories_nodes":[],"categories_segments":[],"categories_sizes":[],"default_left":[0,0,0,0,0,0,0,0,0,0,0,0,0,0,0],"id":8,"left_children":[1,3,5,7,9,11,13,-1,-1,-1,-1,-1,-1,-1,-1],"loss_changes":[2.0750981E3,3.19771E2,2.0943494E2,7.8836914E1,4.3967705E1,3.503723E1,3.6524048E1,0E0,0E0,0E0,0E0,0E0,0E0,0E0,0E0],"parents":[2147483647,0,0,1,1,2,2,3,3,4,4,5,5,6,6],"right_children":[2,4,6,8,10,12,14,-1,-1,-1,-1,-1,-1,-1,-1],"split_conditions":[1.575E1,1.375E1,2.17E1,1.32E1,1.815E1,2.1E1,2.29E1,-1.8231736E-1,-9.946685E-2,-4.176129E-2,4.2908754E-2,7.114811E-2,1.490468E-1,1.7327651E-1,2.691785E-1],"split_indices":[32,36,58,58,58,36,36,0,0,0,0,0,0,0,0],"split_type":[0,0,0,0,0,0,0,0,0,0,0,0,0,0,0],"sum_hessian":[3.36E2,2E2,1.36E2,1.29E2,7.1E1,7.7E1,5.9E1,7.5E1,5.4E1,5E1,2.1E1,5.6E1,2.1E1,3.2E1,2.7E1],"tree_param":{"num_deleted":"0","num_feature":"65","num_nodes":"15","size_leaf_vector":"1"}},{"base_weights":[5.4729246E-3,-2.4257586E0,2.296947E0,-3.3173766E0,-1.4936846E0,8.6584526E-1,3.654001E0,-1.7667672E-1,-8.719916E-2,-1.00494266E-1,-2.4048857E-2,4.0938887E-3,8.239543E-2,1.4426945E-1,2.4664612E-1],"categories":[],"categories_nodes":[],"categories_segments":[],"categories_sizes":[],"default_left":[0,0,0,0,0,0,0,0,0,0,0,0,0,0,0],"id":9,"left_children":[1,3,5,7,9,11,13,-1,-1,-1,-1,-1,-1,-1,-1],"loss_changes":[1.8830339E3,1.3133765E2,3.3475854E2,2.206604E1,4.1899643E1,5.2592728E1,7.325305E1,0E0,0E0,0E0,0E0,0E0,0E0,0E0,0E0],"parents":[2147483647,0,0,1,1,2,2,3,3,4,4,5,5,6,6],"right_children":[2,4,6,8,10,12,14,-1,-1,-1,-1,-1,-1,-1,-1],"split_conditions":[1.64E1,1.315E1,2.02E1,1.16E1,1.42E1,1.59E1,2.325E1,-1.7667672E-1,-8.719916E-2,-1.00494266E-1,-2.4048857E-2,4.0938887E-3,8.239543E-2,1.4426945E-1,2.4664612E-1],"split_indices":[58,58,58,35,36,35,36,0,0,0,0,0,0,0,0],"split_type":[0,0,0,0,0,0,0,0,0,0,0,0,0,0,0],"sum_hessian":[3.36E2,1.63E2,1.73E2,8.2E1,8.1E1,8.5E1,8.8E1,7.1E1,1.1E1,5.3E1,2.8E1,4.3E1,4.2E1,5.7E1,3.1E1],"tree_param":{"num_deleted":"0","num_feature":"65","num_nodes":"15","size_leaf_vector":"1"}},{"base_weights":[5.4633454E-3,-1.9786855E0,2.5526445E0,-2.8684275E0,-6.922322E-1,1.5341667E0,3.9800773E0,-1.791207E-1,-1.08316556E-1,-6.312123E-2,1.1568482E-2,4.860629E-2,1.2207215E-1,1.5584122E-1,2.4430838E-1],"categories":[],"categories_nodes":[],"categories_segments":[],"categories_sizes":[],"default_left":[0,0,0,0,0,0,0,0,0,0,0,0,0,0,0],"id":10,"left_children":[1,3,5,7,9,11,13,-1,-1,-1,-1,-1,-1,-1,-1],"loss_changes":[1.7082444E3,2.1549054E2,2.0905762E2,4.8383545E1,4.1895916E1,4.2500122E1,3.2483948E1,0E0,0E0,0E0,0E0,0E0,0E0,0E0,0E0],"parents":[2147483647,0,0,1,1,2,2,3,3,4,4,5,5,6,6],"right_children":[2,4,6,8,10,12,14,-1,-1,-1,-1,-1,-1,-1,-1],"split_conditions":[1.77E1,1.32E1,2.17E1,1.255E1,1.575E1,1.95E1,2.29E1,-1.791207E-1,-1.08316556E-1,-6.312123E-2,1.1568482E-2,4.860629E-2,1.2207215E-1,1.5584122E-1,2.4430838E-1],"split_indices":[58,36,58,58,36,36,36,0,0,0,0,0,0,0,0],"split_type":[0,0,0,0,0,0,0,0,0,0,0,0,0,0,0],"sum_hessian":[3.36E2,1.89E2,1.47E2,1.11E2,7.8E1,8.7E1,6E1,5.3E1,5.8E1,4.8E1,3E1,5.5E1,3.2E1,3.3E1,2.7E1],"tree_param":{"num_deleted":"0","num_feature":"65","num_nodes":"15","size_leaf_vector":"1"}},{"base_weights":[5.878024E-3,-1.7632322E0,2.601391E0,-2.6268585E0,-3.9627945E-1,1.6276942E0,3.8238401E0,-1.4358047E-1,-4.6592355E-2,-4.0822055E-2,3.6471598E-2,6.1472893E-2,1.2927511E-1,1.6003464E-1,2.5000346E-1],"categories":[],"categories_nodes":[],"categories_segments":[],"categories_sizes":[],"default_left":[0,0,0,0,0,0,0,0,0,0,0,0,0,0,0],"id":11,"left_children":[1,3,5,7,9,11,13,-1,-1,-1,-1,-1,-1,-1,-1],"loss_changes":[1.5520061E3,2.3624683E2,1.5684644E2,4.835138E1,3.796101E1,2.6573074E1,2.7974121E1,0E0,0E0,0E0,0E0,0E0,0E0,0E0,0E0],"parents":[2147483647,0,0,1,1,2,2,3,3,4,4,5,5,6,6],"right_children":[2,4,6,8,10,12,14,-1,-1,-1,-1,-1,-1,-1,-1],"split_conditions":[1.575E1,1.47E1,2.17E1,1.42E1,1.825E1,2.1E1,2.51E1,-1.4358047E-1,-4.6592355E-2,-4.0822055E-2,3.6471598E-2,6.1472893E-2,1.2927511E-1,1.6003464E-1,2.5000346E-1],"split_indices":[32,58,58,36,58,36,36,0,0,0,0,0,0,0,0],"split_type":[0,0,0,0,0,0,0,0,0,0,0,0,0,0,0],"sum_hessian":[3.36E2,2E2,1.36E2,1.22E2,7.8E1,7.7E1,5.9E1,1.06E2,1.6E1,5.7E1,2.1E1,5.6E1,2.1E1,4.1E1,1.8E1],"tree_param":{"num_deleted":"0","num_feature":"65","num_nodes":"15","size_leaf_vector":"1"}},{"base_weights":[6.7897593E-3,-2.0955694E0,1.9882846E0,-2.8757915E0,-1.2802763E0,7.5109065E-1,3.161435E0,-1.8565802E-1,-1.2143453E-1,-8.584969E-2,-2.1146553E-2,3.388766E-3,7.16415E-2,1.1854382E-1,2.0570901E-1],"categories":[],"categories_nodes":[],"categories_segments":[],"categories_sizes":[],"default_left":[0,0,0,0,0,0,0,0,0,0,0,0,0,0,0],"id":12,"left_children":[1,3,5,7,9,11,13,-1,-1,-1,-1,-1,-1,-1,-1],"loss_changes":[1.4080458E3,1.006402E2,2.5017157E2,2.2056152E1,2.9976074E1,3.9965374E1,5.72807E1,0E0,0E0,0E0,0E0,0E0,0E0,0E0,0E0],"parents":[2147483647,0,0,1,1,2,2,3,3,4,4,5,5,6,6],"right_children":[2,4,6,8,10,12,14,-1,-1,-1,-1,-1,-1,-1,-1],"split_conditions":[1.64E1,1.315E1,2.02E1,1.145E1,1.42E1,1.59E1,2.28E1,-1.8565802E-1,-1.2143453E-1,-8.584969E-2,-2.1146553E-2,3.388766E-3,7.16415E-2,1.1854382E-1,2.0570901E-1],"split_indices":[58,58,58,58,36,35,58,0,0,0,0,0,0,0,0],"split_type":[0,0,0,0,0,0,0,0,0,0,0,0,0,0,0],"sum_hessian":[3.36E2,1.63E2,1.73E2,8.2E1,8.1E1,8.5E1,8.8E1,2.6E1,5.6E1,5.3E1,2.8E1,4.3E1,4.2E1,5E1,3.8E1],"tree_param":{"num_deleted":"0","num_feature":"65","num_nodes":"15","size_leaf_vector":"1"}},{"base_weights":[6.4061955E-3,-1.6675773E0,2.2615895E0,-2.4156227E0,-4.7435394E-1,1.5392061E0,3.7197165E0,-1.767189E-1,-1.0324241E-1,-4.271412E-2,3.1607993E-2,5.3730007E-2,1.2319374E-1,1.5177217E-1,2.3267606E-1],"categories":[],"categories_nodes":[],"categories_segments":[],"categories_sizes":[],"default_left":[0,0,0,0,0,0,0,0,0,0,0,0,0,0,0],"id":13,"left_children":[1,3,5,7,9,11,13,-1,-1,-1,-1,-1,-1,-1,-1],"loss_changes":[1.2759934E3,1.7201569E2,1.4595361E2,3.9401245E1,3.2490135E1,3.945375E1,1.5906494E1,0E0,0E0,0E0,0E0,0E0,0E0,0E0,0E0],"parents":[2147483647,0,0,1,1,2,2,3,3,4,4,5,5,6,6],"right_children":[2,4,6,8,10,12,14,-1,-1,-1,-1,-1,-1,-1,-1],"split_conditions":[1.495E1,1.445E1,2.225E1,1.145E1,1.825E1,2.1E1,2.51E1,-1.767189E-1,-1.0324241E-1,-4.271412E-2,3.1607993E-2,5.3730007E-2,1.2319374E-1,1.5177217E-1,2.3267606E-1],"split_indices":[35,58,58,58,58,36,36,0,0,0,0,0,0,0,0],"split_type":[0,0,0,0,0,0,0,0,0,0,0,0,0,0,0],"sum_hessian":[3.36E2,1.93E2,1.43E2,1.18E2,7.5E1,9.7E1,4.6E1,2.6E1,9.2E1,5.6E1,1.9E1,6.6E1,3.1E1,2.9E1,1.7E1],"tree_param":{"num_deleted":"0","num_feature":"65","num_nodes":"15","size_leaf_vector":"1"}},{"base_weights":[6.888132E-3,-1.9015429E0,1.8055997E0,-2.3835871E0,-8.1745565E-1,8.7799466E-1,3.1075125E0,-1.4801537E-1,-8.825248E-2,-5.9417833E-2,-1.0667342E-2,-7.86744E-4,6.792212E-2,1.26702E-1,2.1478379E-1],"categories":[],"categories_nodes":[],"categories_segments":[],"categories_sizes":[],"default_left":[0,0,0,0,0,0,0,0,0,0,0,0,0,0,0],"id":14,"left_children":[1,3,5,7,9,11,13,-1,-1,-1,-1,-1,-1,-1,-1],"loss_changes":[1.1602592E3,8.3754395E1,2.0740454E2,3.5084595E1,1.1397827E1,4.424858E1,3.817395E1,0E0,0E0,0E0,0E0,0E0,0E0,0E0,0E0],"parents":[2147483647,0,0,1,1,2,2,3,3,4,4,5,5,6,6],"right_children":[2,4,6,8,10,12,14,-1,-1,-1,-1,-1,-1,-1,-1],"split_conditions":[1.64E1,1.18E1,1.815E1,1.255E1,1.36E1,1.59E1,2.395E1,-1.4801537E-1,-8.825248E-2,-5.9417833E-2,-1.0667342E-2,-7.86744E-4,6.792212E-2,1.26702E-1,2.1478379E-1],"split_indices":[58,35,35,58,35,36,58,0,0,0,0,0,0,0,0],"split_type":[0,0,0,0,0,0,0,0,0,0,0,0,0,0,0],"sum_hessian":[3.36E2,1.63E2,1.73E2,1.12E2,5.1E1,1.02E2,7.1E1,5.6E1,5.6E1,3.1E1,2E1,3.6E1,6.6E1,5E1,2.1E1],"tree_param":{"num_deleted":"0","num_feature":"65","num_nodes":"15","size_leaf_vector":"1"}},{"base_weights":[6.8469374E-3,-1.5511043E0,2.0068731E0,-2.2573485E0,-5.3021246E-1,1.0773876E0,2.9730332E0,-1.5608062E-1,-9.284064E-2,-4.8765264E-2,7.6997923E-3,1.8657481E-2,7.145471E-2,1.2486416E-1,2.0843445E-1],"categories":[],"categories_nodes":[],"categories_segments":[],"categories_sizes":[],"default_left":[0,0,0,0,0,0,0,0,0,0,0,0,0,0,0],"id":15,"left_children":[1,3,5,7,9,11,13,-1,-1,-1,-1,-1,-1,-1,-1],"loss_changes":[1.0531859E3,1.3579291E2,1.2970557E2,3.297467E1,2.4208551E1,1.8538498E1,3.0545593E1,0E0,0E0,0E0,0E0,0E0,0E0,0E0,0E0],"parents":[2147483647,0,0,1,1,2,2,3,3,4,4,5,5,6,6],"right_children":[2,4,6,8,10,12,14,-1,-1,-1,-1,-1,-1,-1,-1],"split_conditions":[1.77E1,1.32E1,2.065E1,1.175E1,1.385E1,1.57E1,2.515E1,-1.5608062E-1,-9.284064E-2,-4.8765264E-2,7.6997923E-3,1.8657481E-2,7.145471E-2,1.2486416E-1,2.0843445E-1],"split_indices":[58,36,36,58,35,32,36,0,0,0,0,0,0,0,0],"split_type":[0,0,0,0,0,0,0,0,0,0,0,0,0,0,0],"sum_hessian":[3.36E2,1.89E2,1.47E2,1.11E2,7.8E1,7.6E1,7.1E1,3.3E1,7.8E1,4.7E1,3.1E1,2.6E1,5E1,5.3E1,1.8E1],"tree_param":{"num_deleted":"0","num_feature":"65","num_nodes":"15","size_leaf_vector":"1"}},{"base_weights":[6.900185E-3,-1.7240447E0,1.6383258E0,-2.3780973E0,-1.0409911E0,7.446499E-1,2.7808995E0,-1.6846395E-1,-1.0358715E-1,-6.993637E-2,-1.6948251E-2,6.8109035E-3,6.573103E-2,1.1412873E-1,1.9149853E-1],"categories":[],"categories_nodes":[],"categories_segments":[],"categories_sizes":[],"default_left":[0,0,0,0,0,0,0,0,0,0,0,0,0,0,0],"id":16,"left_children":[1,3,5,7,9,11,13,-1,-1,-1,-1,-1,-1,-1,-1],"loss_changes":[9.544815E2,7.07919E1,1.755989E2,1.822287E1,2.0119377E1,3.4152958E1,3.0988953E1,0E0,0E0,0E0,0E0,0E0,0E0,0E0,0E0],"parents":[2147483647,0,0,1,1,2,2,3,3,4,4,5,5,6,6],"right_children":[2,4,6,8,10,12,14,-1,-1,-1,-1,-1,-1,-1,-1],"split_conditions":[1.64E1,1.315E1,2.105E1,7.65E0,1.42E1,1.71415E1,2.4E1,-1.6846395E-1,-1.0358715E-1,-6.993637E-2,-1.6948251E-2,6.8109035E-3,6.573103E-2,1.1412873E-1,1.9149853E-1],"split_indices":[58,58,58,35,36,37,58,0,0,0,0,0,0,0,0],"split_type":[0,0,0,0,0,0,0,0,0,0,0,0,0,0,0],"sum_hessian":[3.36E2,1.63E2,1.73E2,8.2E1,8.1E1,9.8E1,7.5E1,1.7E1,6.5E1,5.3E1,2.8E1,4.8E1,5E1,5.3E1,2.2E1],"tree_param":{"num_deleted":"0","num_feature":"65","num_nodes":"15","size_leaf_vector":"1"}},{"base_weights":[6.612441E-3,-1.4056612E0,1.8196218E0,-2.0487847E0,-4.7609815E-1,1.1857189E0,3.0383573E0,-1.3506418E-1,-8.015029E-2,-3.6111146E-2,2.690785E-2,3.3985294E-2,9.1445275E-2,1.2134047E-1,1.8836568E-1],"categories":[],"categories_nodes":[],"categories_segments":[],"categories_sizes":[],"default_left":[0,0,0,0,0,0,0,0,0,0,0,0,0,0,0],"id":17,"left_children":[1,3,5,7,9,11,13,-1,-1,-1,-1,-1,-1,-1,-1],"loss_changes":[8.6543463E2,1.12611084E2,1.1073624E2,2.8247314E1,2.01097E1,3.0977509E1,1.3147064E1,0E0,0E0,0E0,0E0,0E0,0E0,0E0,0E0],"parents":[2147483647,0,0,1,1,2,2,3,3,4,4,5,5,6,6],"right_children":[2,4,6,8,10,12,14,-1,-1,-1,-1,-1,-1,-1,-1],"split_conditions":[1.77E1,1.32E1,2.21E1,1.215E1,1.7648E1,1.95E1,2.47E1,-1.3506418E-1,-8.015029E-2,-3.6111146E-2,2.690785E-2,3.3985294E-2,9.1445275E-2,1.2134047E-1,1.8836568E-1],"split_indices":[58,36,58,58,34,36,36,0,0,0,0,0,0,0,0],"split_type":[0,0,0,0,0,0,0,0,0,0,0,0,0,0,0],"sum_hessian":[3.36E2,1.89E2,1.47E2,1.11E2,7.8E1,9.8E1,4.9E1,4.3E1,6.8E1,6.3E1,1.5E1,5.6E1,4.2E1,2.9E1,2E1],"tree_param":{"num_deleted":"0","num_feature":"65","num_nodes":"15","size_leaf_vector":"1"}},{"base_weights":[6.907203E-3,-1.2522885E0,1.8542898E0,-1.8307947E0,-1.9037035E-1,1.2692813E0,2.9475129E0,-1.0878821E-1,-4.8503872E-2,-2.1585623E-2,3.7775524E-2,4.4803396E-2,9.646957E-2,9.638799E-2,1.6608593E-1],"categories":[],"categories_nodes":[],"categories_segments":[],"categories_sizes":[],"default_left":[0,0,0,0,0,0,0,0,0,0,0,0,0,0,0],"id":18,"left_children":[1,3,5,7,9,11,13,-1,-1,-1,-1,-1,-1,-1,-1],"loss_changes":[7.86257E2,1.2313107E2,8.387637E1,3.6489044E1,1.6762384E1,2.0690063E1,1.1531586E1,0E0,0E0,0E0,0E0,0E0,0E0,0E0,0E0],"parents":[2147483647,0,0,1,1,2,2,3,3,4,4,5,5,6,6],"right_children":[2,4,6,8,10,12,14,-1,-1,-1,-1,-1,-1,-1,-1],"split_conditions":[1.575E1,1.375E1,2.225E1,1.405E1,1.89E1,2.1E1,5.9399996E0,-1.0878821E-1,-4.8503872E-2,-2.1585623E-2,3.7775524E-2,4.4803396E-2,9.646957E-2,9.638799E-2,1.6608593E-1],"split_indices":[32,36,58,58,58,36,50,0,0,0,0,0,0,0,0],"split_type":[0,0,0,0,0,0,0,0,0,0,0,0,0,0,0],"sum_hessian":[3.36E2,2E2,1.36E2,1.29E2,7.1E1,9E1,4.6E1,9.1E1,3.8E1,5.7E1,1.4E1,5.9E1,3.1E1,1.4E1,3.2E1],"tree_param":{"num_deleted":"0","num_feature":"65","num_nodes":"15","size_leaf_vector":"1"}},{"base_weights":[7.341187E-3,-1.4893445E0,1.4179682E0,-2.0637224E0,-8.8979924E-1,5.170755E-1,2.2725616E0,-1.4929853E-1,-8.904658E-2,-5.8669638E-2,-1.16925845E-2,1.7986806E-3,4.9867038E-2,9.3512245E-2,1.6728602E-1],"categories":[],"categories_nodes":[],"categories_segments":[],"categories_sizes":[],"default_left":[0,0,0,0,0,0,0,0,0,0,0,0,0,0,0],"id":19,"left_children":[1,3,5,7,9,11,13,-1,-1,-1,-1,-1,-1,-1,-1],"loss_changes":[7.1360815E2,5.4639618E1,1.3278699E2,1.6328857E1,1.4979454E1,1.9834984E1,3.2168427E1,0E0,0E0,0E0,0E0,0E0,0E0,0E0,0E0],"parents":[2147483647,0,0,1,1,2,2,3,3,4,4,5,5,6,6],"right_children":[2,4,6,8,10,12,14,-1,-1,-1,-1,-1,-1,-1,-1],"split_conditions":[1.64E1,1.315E1,2.02E1,7.65E0,1E1,1.59E1,2.47E1,-1.4929853E-1,-8.904658E-2,-5.8669638E-2,-1.16925845E-2,1.7986806E-3,4.9867038E-2,9.3512245E-2,1.6728602E-1],"split_indices":[58,58,58,35,55,35,36,0,0,0,0,0,0,0,0],"split_type":[0,0,0,0,0,0,0,0,0,0,0,0,0,0,0],"sum_hessian":[3.36E2,1.63E2,1.73E2,8.2E1,8.1E1,8.5E1,8.8E1,1.7E1,6.5E1,5.6E1,2.5E1,4.3E1,4.2E1,6.6E1,2.2E1],"tree_param":{"num_deleted":"0","num_feature":"65","num_nodes":"15","size_leaf_vector":"1"}},{"base_weights":[6.9853812E-3,-1.2658305E0,1.5096843E0,-1.6549451E0,-1.9768685E-1,8.2242084E-1,2.4239876E0,-1.3307516E-1,-6.998329E-2,-1.9806763E-2,2.3187216E-2,5.6713424E-3,5.543387E-2,1.00691035E-1,1.7438869E-1],"categories":[],"categories_nodes":[],"categories_segments":[],"categories_sizes":[],"default_left":[0,0,0,0,0,0,0,0,0,0,0,0,0,0,0],"id":20,"left_children":[1,3,5,7,9,11,13,-1,-1,-1,-1,-1,-1,-1,-1],"loss_changes":[6.464771E2,7.5733185E1,9.540341E1,3.0706573E1,6.746703E0,1.8140118E1,2.1774017E1,0E0,0E0,0E0,0E0,0E0,0E0,0E0,0E0],"parents":[2147483647,0,0,1,1,2,2,3,3,4,4,5,5,6,6],"right_children":[2,4,6,8,10,12,14,-1,-1,-1,-1,-1,-1,-1,-1],"split_conditions":[1.72E1,1.42E1,1.97E1,1.145E1,1.7948E1,1.59E1,2.45E1,-1.3307516E-1,-6.998329E-2,-1.9806763E-2,2.3187216E-2,5.6713424E-3,5.543387E-2,1.00691035E-1,1.7438869E-1],"split_indices":[58,36,32,58,34,36,58,0,0,0,0,0,0,0,0],"split_type":[0,0,0,0,0,0,0,0,0,0,0,0,0,0,0],"sum_hessian":[3.36E2,1.82E2,1.54E2,1.33E2,4.9E1,8.9E1,6.5E1,2.5E1,1.08E2,3.8E1,1.1E1,2.6E1,6.3E1,4.9E1,1.6E1],"tree_param":{"num_deleted":"0","num_feature":"65","num_nodes":"15","size_leaf_vector":"1"}},{"base_weights":[7.041337E-3,-1.0940872E0,1.5834265E0,-1.6361781E0,-2.321747E-1,1.06939E0,2.5668726E0,-1.1741586E-1,-6.613466E-2,-2.3210647E-2,2.3197342E-2,3.7297443E-2,8.313195E-2,8.293897E-2,1.4509292E-1],"categories":[],"categories_nodes":[],"categories_segments":[],"categories_sizes":[],"default_left":[0,0,0,0,0,0,0,0,0,0,0,0,0,0,0],"id":21,"left_children":[1,3,5,7,9,11,13,-1,-1,-1,-1,-1,-1,-1,-1],"loss_changes":[5.866979E2,9.259987E1,6.7523285E1,2.412976E1,1.2814461E1,1.6604698E1,9.483765E0,0E0,0E0,0E0,0E0,0E0,0E0,0E0,0E0],"parents":[2147483647,0,0,1,1,2,2,3,3,4,4,5,5,6,6],"right_children":[2,4,6,8,10,12,14,-1,-1,-1,-1,-1,-1,-1,-1],"split_conditions":[1.57E1,1.47E1,2.225E1,1.06E1,1.85E1,2.1E1,5.9399996E0,-1.1741586E-1,-6.613466E-2,-2.3210647E-2,2.3197342E-2,3.7297443E-2,8.313195E-2,8.293897E-2,1.4509292E-1],"split_indices":[32,58,58,36,58,36,50,0,0,0,0,0,0,0,0],"split_type":[0,0,0,0,0,0,0,0,0,0,0,0,0,0,0],"sum_hessian":[3.36E2,1.98E2,1.38E2,1.21E2,7.7E1,9.2E1,4.6E1,3.5E1,8.6E1,5.8E1,1.9E1,6.1E1,3.1E1,1.4E1,3.2E1],"tree_param":{"num_deleted":"0","num_feature":"65","num_nodes":"15","size_leaf_vector":"1"}},{"base_weights":[7.1784337E-3,-1.2709986E0,1.2407261E0,-1.7286668E0,-6.0255677E-1,6.3686734E-1,2.2009106E0,-1.3158077E-1,-7.53335E-2,-4.7735862E-2,-9.472542E-3,9.793643E-3,4.9616132E-2,9.101748E-2,1.5953712E-1],"categories":[],"categories_nodes":[],"categories_segments":[],"categories_sizes":[],"default_left":[0,0,0,0,0,0,0,0,0,0,0,0,0,0,0],"id":22,"left_children":[1,3,5,7,9,11,13,-1,-1,-1,-1,-1,-1,-1,-1],"loss_changes":[5.3292224E2,4.9741882E1,9.832663E1,1.567926E1,9.857214E0,1.6578289E1,1.9053345E1,0E0,0E0,0E0,0E0,0E0,0E0,0E0,0E0],"parents":[2147483647,0,0,1,1,2,2,3,3,4,4,5,5,6,6],"right_children":[2,4,6,8,10,12,14,-1,-1,-1,-1,-1,-1,-1,-1],"split_conditions":[1.365E1,1.365E1,1.97E1,7.65E0,1.58E1,1.89E1,2.45E1,-1.3158077E-1,-7.53335E-2,-4.7735862E-2,-9.472542E-3,9.793643E-3,4.9616132E-2,9.101748E-2,1.5953712E-1],"split_indices":[35,58,32,35,58,58,58,0,0,0,0,0,0,0,0],"split_type":[0,0,0,0,0,0,0,0,0,0,0,0,0,0,0],"sum_hessian":[3.36E2,1.65E2,1.71E2,9.7E1,6.8E1,1.06E2,6.5E1,1.7E1,8E1,3.6E1,3.2E1,4.8E1,5.8E1,4.9E1,1.6E1],"tree_param":{"num_deleted":"0","num_feature":"65","num_nodes":"15","size_leaf_vector":"1"}},{"base_weights":[6.955662E-3,-1.0241987E0,1.3961014E0,-1.631564E0,-4.248928E-1,9.080345E-1,2.2955062E0,-1.2536725E-1,-7.0568316E-2,-3.1110644E-2,2.1933831E-2,2.3663424E-2,6.5326184E-2,9.302854E-2,1.4826801E-1],"categories":[],"categories_nodes":[],"categories_segments":[],"categories_sizes":[],"default_left":[0,0,0,0,0,0,0,0,0,0,0,0,0,0,0],"id":23,"left_children":[1,3,5,7,9,11,13,-1,-1,-1,-1,-1,-1,-1,-1],"loss_changes":[4.8415665E2,6.99223E1,6.112726E1,1.4974335E1,1.714251E1,1.584037E1,9.049896E0,0E0,0E0,0E0,0E0,0E0,0E0,0E0,0E0],"parents":[2147483647,0,0,1,1,2,2,3,3,4,4,5,5,6,6],"right_children":[2,4,6,8,10,12,14,-1,-1,-1,-1,-1,-1,-1,-1],"split_conditions":[1.495E1,1.35E1,2.21E1,7.65E0,1.85E1,1.95E1,2.51E1,-1.2536725E-1,-7.0568316E-2,-3.1110644E-2,2.1933831E-2,2.3663424E-2,6.5326184E-2,9.302854E-2,1.4826801E-1],"split_indices":[35,58,58,35,58,36,36,0,0,0,0,0,0,0,0],"split_type":[0,0,0,0,0,0,0,0,0,0,0,0,0,0,0],"sum_hessian":[3.36E2,1.93E2,1.43E2,9.5E1,9.8E1,9.4E1,4.9E1,1.7E1,7.8E1,8E1,1.8E1,4.6E1,4.8E1,3.2E1,1.7E1],"tree_param":{"num_deleted":"0","num_feature":"65","num_nodes":"15","size_leaf_vector":"1"}},{"base_weights":[6.97926E-3,-1.2047194E0,1.0832536E0,-1.9028429E0,-8.8568544E-1,3.735384E-1,1.7967461E0,-1.2157307E-1,-7.4350126E-2,-5.426828E-2,-1.1212989E-2,9.606083E-5,3.8522474E-2,7.5165585E-2,1.3993496E-1],"categories":[],"categories_nodes":[],"categories_segments":[],"categories_sizes":[],"default_left":[0,0,0,0,0,0,0,0,0,0,0,0,0,0,0],"id":24,"left_children":[1,3,5,7,9,11,13,-1,-1,-1,-1,-1,-1,-1,-1],"loss_changes":[4.4079352E2,3.3727966E1,8.9970245E1,7.1556396E0,1.4416756E1,1.3420927E1,2.1959381E1,0E0,0E0,0E0,0E0,0E0,0E0,0E0,0E0],"parents":[2147483647,0,0,1,1,2,2,3,3,4,4,5,5,6,6],"right_children":[2,4,6,8,10,12,14,-1,-1,-1,-1,-1,-1,-1,-1],"split_conditions":[1.625E1,9.55E0,2.02E1,1.14E1,1.495E1,1.59E1,2.475E1,-1.2157307E-1,-7.4350126E-2,-5.426828E-2,-1.1212989E-2,9.606083E-5,3.8522474E-2,7.5165585E-2,1.3993496E-1],"split_indices":[58,35,58,58,36,35,58,0,0,0,0,0,0,0,0],"split_type":[0,0,0,0,0,0,0,0,0,0,0,0,0,0,0],"sum_hessian":[3.36E2,1.58E2,1.78E2,4.8E1,1.1E2,9E1,8.8E1,1.9E1,2.9E1,8.4E1,2.6E1,4.7E1,4.3E1,7E1,1.8E1],"tree_param":{"num_deleted":"0","num_feature":"65","num_nodes":"15","size_leaf_vector":"1"}},{"base_weights":[6.6076894E-3,-9.943652E-1,1.1883589E0,-1.3844564E0,-2.9831994E-1,6.433538E-1,1.9135423E0,-1.0688007E-1,-5.7828136E-2,-2.9071558E-2,1.475133E-3,-3.2519845E-3,4.1067775E-2,7.904928E-2,1.3895445E-1],"categories":[],"categories_nodes":[],"categories_segments":[],"categories_sizes":[],"default_left":[0,0,0,0,0,0,0,0,0,0,0,0,0,0,0],"id":25,"left_children":[1,3,5,7,9,11,13,-1,-1,-1,-1,-1,-1,-1,-1],"loss_changes":[3.998193E2,4.9275345E1,6.0029343E1,1.7609283E1,6.2354403E0,1.1401993E1,1.4603958E1,0E0,0E0,0E0,0E0,0E0,0E0,0E0,0E0],"parents":[2147483647,0,0,1,1,2,2,3,3,4,4,5,5,6,6],"right_children":[2,4,6,8,10,12,14,-1,-1,-1,-1,-1,-1,-1,-1],"split_conditions":[1.72E1,1.18E1,1.97E1,1.145E1,1.365E1,1.115E1,2.45E1,-1.0688007E-1,-5.7828136E-2,-2.9071558E-2,1.475133E-3,-3.2519845E-3,4.1067775E-2,7.904928E-2,1.3895445E-1],"split_indices":[58,35,32,58,35,33,58,0,0,0,0,0,0,0,0],"split_type":[0,0,0,0,0,0,0,0,0,0,0,0,0,0,0],"sum_hessian":[3.36E2,1.82E2,1.54E2,1.16E2,6.6E1,8.9E1,6.5E1,2.5E1,9.1E1,3.5E1,3.1E1,1.8E1,7.1E1,4.9E1,1.6E1],"tree_param":{"num_deleted":"0","num_feature":"65","num_nodes":"15","size_leaf_vector":"1"}},{"base_weights":[6.465861E-3,-1.0929203E0,9.829795E-1,-1.7360309E0,-7.991785E-1,4.2143852E-1,1.73847E0,-1.3061152E-1,-7.506761E-2,-4.889461E-2,-1.0348115E-2,7.4899243E-4,3.847821E-2,7.024867E-2,1.2229382E-1],"categories":[],"categories_nodes":[],"categories_segments":[],"categories_sizes":[],"default_left":[0,0,0,0,0,0,0,0,0,0,0,0,0,0,0],"id":26,"left_children":[1,3,5,7,9,11,13,-1,-1,-1,-1,-1,-1,-1,-1],"loss_changes":[3.628659E2,2.8649048E1,7.520607E1,6.153763E0,1.1545532E1,1.4704334E1,1.4493362E1,0E0,0E0,0E0,0E0,0E0,0E0,0E0,0E0],"parents":[2147483647,0,0,1,1,2,2,3,3,4,4,5,5,6,6],"right_children":[2,4,6,8,10,12,14,-1,-1,-1,-1,-1,-1,-1,-1],"split_conditions":[1.625E1,9.55E0,2.105E1,1.045E1,1.495E1,1.68415E1,2.47E1,-1.3061152E-1,-7.506761E-2,-4.889461E-2,-1.0348115E-2,7.4899243E-4,3.847821E-2,7.024867E-2,1.2229382E-1],"split_indices":[58,35,58,58,36,37,36,0,0,0,0,0,0,0,0],"split_type":[0,0,0,0,0,0,0,0,0,0,0,0,0,0,0],"sum_hessian":[3.36E2,1.58E2,1.78E2,4.8E1,1.1E2,1.03E2,7.5E1,8E0,4E1,8.4E1,2.6E1,4.8E1,5.5E1,5.3E1,2.2E1],"tree_param":{"num_deleted":"0","num_feature":"65","num_nodes":"15","size_leaf_vector":"1"}},{"base_weights":[6.043935E-3,-7.508442E-1,1.295733E0,-1.2327662E0,-1.1575383E-1,9.376079E-1,2.0614033E0,-7.8590445E-2,-4.122556E-2,-1.6392976E-2,2.37144E-2,3.216997E-2,6.997716E-2,9.176703E-2,1.6157812E-1],"categories":[],"categories_nodes":[],"categories_segments":[],"categories_sizes":[],"default_left":[0,0,0,0,0,0,0,0,0,0,0,0,0,0,0],"id":27,"left_children":[1,3,5,7,9,11,13,-1,-1,-1,-1,-1,-1,-1,-1],"loss_changes":[3.2993555E2,6.504895E1,3.234294E1,1.5452332E1,1.1794564E1,1.0923294E1,4.3856354E0,0E0,0E0,0E0,0E0,0E0,0E0,0E0,0E0],"parents":[2147483647,0,0,1,1,2,2,3,3,4,4,5,5,6,6],"right_children":[2,4,6,8,10,12,14,-1,-1,-1,-1,-1,-1,-1,-1],"split_conditions":[1.89E1,1.445E1,2.28E1,1.02E1,1.765E1,1.9398E1,2.38E1,-7.8590445E-2,-4.122556E-2,-1.6392976E-2,2.37144E-2,3.216997E-2,6.997716E-2,9.176703E-2,1.6157812E-1],"split_indices":[58,58,58,35,36,34,35,0,0,0,0,0,0,0,0],"split_type":[0,0,0,0,0,0,0,0,0,0,0,0,0,0,0],"sum_hessian":[3.36E2,2.12E2,1.24E2,1.2E2,9.2E1,8.6E1,3.8E1,6.4E1,5.6E1,6.8E1,2.4E1,5.4E1,3.2E1,3.4E1,4E0],"tree_param":{"num_deleted":"0","num_feature":"65","num_nodes":"15","size_leaf_vector":"1"}},{"base_weights":[6.4630453E-3,-7.1383005E-1,1.2337909E0,-1.1370542E0,-5.0342366E-2,8.9190215E-1,1.9648299E0,-9.401724E-2,-4.7108613E-2,-1.0784369E-2,2.8395265E-2,3.0590748E-2,6.658434E-2,8.544159E-2,1.4454943E-1],"categories":[],"categories_nodes":[],"categories_segments":[],"categories_sizes":[],"default_left":[0,0,0,0,0,0,0,0,0,0,0,0,0,0,0],"id":28,"left_children":[1,3,5,7,9,11,13,-1,-1,-1,-1,-1,-1,-1,-1],"loss_changes":[2.9880078E2,5.9754005E1,2.9489319E1,1.7059418E1,8.70932E0,9.901741E0,4.306488E0,0E0,0E0,0E0,0E0,0E0,0E0,0E0,0E0],"parents":[2147483647,0,0,1,1,2,2,3,3,4,4,5,5,6,6],"right_children":[2,4,6,8,10,12,14,-1,-1,-1,-1,-1,-1,-1,-1],"split_conditions":[1.89E1,1.375E1,2.28E1,1.145E1,1.86E1,1.9398E1,2.295E1,-9.401724E-2,-4.7108613E-2,-1.0784369E-2,2.8395265E-2,3.0590748E-2,6.658434E-2,8.544159E-2,1.4454943E-1],"split_indices":[58,36,58,58,36,34,35,0,0,0,0,0,0,0,0],"split_type":[0,0,0,0,0,0,0,0,0,0,0,0,0,0,0],"sum_hessian":[3.36E2,2.12E2,1.24E2,1.29E2,8.3E1,8.6E1,3.8E1,2.5E1,1.04E2,6.6E1,1.7E1,5.4E1,3.2E1,3.2E1,6E0],"tree_param":{"num_deleted":"0","num_feature":"65","num_nodes":"15","size_leaf_vector":"1"}},{"base_weights":[6.744328E-3,-9.919823E-1,8.131667E-1,-1.6475852E0,-7.799678E-1,3.0570114E-1,1.4734833E0,-1.2861337E-1,-6.8845324E-2,-4.6070162E-2,-9.970337E-3,-9.1169225E-3,2.5358453E-2,6.0878318E-2,1.12224914E-1],"categories":[],"categories_nodes":[],"categories_segments":[],"categories_sizes":[],"default_left":[0,0,0,0,0,0,0,0,0,0,0,0,0,0,0],"id":29,"left_children":[1,3,5,7,9,11,13,-1,-1,-1,-1,-1,-1,-1,-1],"loss_changes":[2.722249E2,1.9703537E1,6.2211E1,5.4687347E0,9.341248E0,1.0613181E1,1.3249771E1,0E0,0E0,0E0,0E0,0E0,0E0,0E0,0E0],"parents":[2147483647,0,0,1,1,2,2,3,3,4,4,5,5,6,6],"right_children":[2,4,6,8,10,12,14,-1,-1,-1,-1,-1,-1,-1,-1],"split_conditions":[1.585E1,1.06E1,2.06E1,1.04E1,1.495E1,1.40055E1,2.475E1,-1.2861337E-1,-6.8845324E-2,-4.6070162E-2,-9.970337E-3,-9.1169225E-3,2.5358453E-2,6.0878318E-2,1.12224914E-1],"split_indices":[58,36,58,58,36,38,58,0,0,0,0,0,0,0,0],"split_type":[0,0,0,0,0,0,0,0,0,0,0,0,0,0,0],"sum_hessian":[3.36E2,1.5E2,1.86E2,3.5E1,1.15E2,1.06E2,8E1,6E0,2.9E1,9.2E1,2.3E1,3.1E1,7.5E1,6.2E1,1.8E1],"tree_param":{"num_deleted":"0","num_feature":"65","num_nodes":"15","size_leaf_vector":"1"}},{"base_weights":[6.2167654E-3,-7.9453224E-1,9.184231E-1,-1.0806731E0,-1.4163692E-1,4.931982E-1,1.535266E0,-9.375128E-2,-4.691374E-2,-1.2173188E-2,2.4987852E-2,1.2150483E-2,4.5757484E-2,6.6291764E-2,1.2119055E-1],"categories":[],"categories_nodes":[],"categories_segments":[],"categories_sizes":[],"default_left":[0,0,0,0,0,0,0,0,0,0,0,0,0,0,0],"id":30,"left_children":[1,3,5,7,9,11,13,-1,-1,-1,-1,-1,-1,-1,-1],"loss_changes":[2.468908E2,3.347455E1,4.068573E1,1.2380005E1,3.7790956E0,9.806515E0,8.696091E0,0E0,0E0,0E0,0E0,0E0,0E0,0E0,0E0],"parents":[2147483647,0,0,1,1,2,2,3,3,4,4,5,5,6,6],"right_children":[2,4,6,8,10,12,14,-1,-1,-1,-1,-1,-1,-1,-1],"split_conditions":[1.575E1,1.505E1,2.145E1,7.65E0,2.1925E1,1.9198E1,2.55E1,-9.375128E-2,-4.691374E-2,-1.2173188E-2,2.4987852E-2,1.2150483E-2,4.5757484E-2,6.6291764E-2,1.2119055E-1],"split_indices":[36,58,58,35,63,34,58,0,0,0,0,0,0,0,0],"split_type":[0,0,0,0,0,0,0,0,0,0,0,0,0,0,0],"sum_hessian":[3.36E2,1.79E2,1.57E2,1.24E2,5.5E1,9.4E1,6.3E1,1.7E1,1.07E2,4.8E1,7E0,6E1,3.4E1,5.3E1,1E1],"tree_param":{"num_deleted":"0","num_feature":"65","num_nodes":"15","size_leaf_vector":"1"}},{"base_weights":[6.2549124E-3,-8.637133E-1,7.6985896E-1,-1.3718256E0,-6.157741E-1,3.387844E-1,1.3970671E0,-8.23627E-2,-4.106244E-2,-3.890842E-2,-9.365271E-3,-8.074125E-3,2.5376681E-2,5.560972E-2,9.839996E-2],"categories":[],"categories_nodes":[],"categories_segments":[],"categories_sizes":[],"default_left":[0,0,0,0,0,0,0,0,0,0,0,0,0,0,0],"id":31,"left_children":[1,3,5,7,9,11,13,-1,-1,-1,-1,-1,-1,-1,-1],"loss_changes":[2.2453784E2,1.9060257E1,4.819394E1,6.381073E0,7.3689766E0,9.199282E0,9.684128E0,0E0,0E0,0E0,0E0,0E0,0E0,0E0,0E0],"parents":[2147483647,0,0,1,1,2,2,3,3,4,4,5,5,6,6],"right_children":[2,4,6,8,10,12,14,-1,-1,-1,-1,-1,-1,-1,-1],"split_conditions":[1.61E1,1.215E1,2.08E1,1.3155499E1,1.42E1,1.40055E1,2.47E1,-8.23627E-2,-4.106244E-2,-3.890842E-2,-9.365271E-3,-8.074125E-3,2.5376681E-2,5.560972E-2,9.839996E-2],"split_indices":[58,58,36,38,36,38,36,0,0,0,0,0,0,0,0],"split_type":[0,0,0,0,0,0,0,0,0,0,0,0,0,0,0],"sum_hessian":[3.36E2,1.57E2,1.79E2,5E1,1.07E2,1.07E2,7.2E1,3.2E1,1.8E1,7.7E1,3E1,2.7E1,8E1,5E1,2.2E1],"tree_param":{"num_deleted":"0","num_feature":"65","num_nodes":"15","size_leaf_vector":"1"}},{"base_weights":[5.940635E-3,-5.902785E-1,1.0218506E0,-1.077122E0,-1.892001E-1,7.640597E-1,1.7173868E0,-6.7800544E-2,-3.583538E-2,-2.2188077E-2,6.036006E-3,1.8758386E-2,4.672072E-2,9.924715E-2,5.0091267E-2],"categories":[],"categories_nodes":[],"categories_segments":[],"categories_sizes":[],"default_left":[0,0,0,0,0,0,0,0,0,0,0,0,0,0,0],"id":32,"left_children":[1,3,5,7,9,11,13,-1,-1,-1,-1,-1,-1,-1,-1],"loss_changes":[2.0472575E2,4.1387108E1,2.1100662E1,8.677635E0,9.363031E0,5.8106537E0,4.3293686E0,0E0,0E0,0E0,0E0,0E0,0E0,0E0,0E0],"parents":[2147483647,0,0,1,1,2,2,3,3,4,4,5,5,6,6],"right_children":[2,4,6,8,10,12,14,-1,-1,-1,-1,-1,-1,-1,-1],"split_conditions":[1.89E1,1.35E1,2.31E1,1.32055E1,1.485E1,1.77915E1,1.445E1,-6.7800544E-2,-3.583538E-2,-2.2188077E-2,6.036006E-3,1.8758386E-2,4.672072E-2,9.924715E-2,5.0091267E-2],"split_indices":[58,58,36,38,36,37,61,0,0,0,0,0,0,0,0],"split_type":[0,0,0,0,0,0,0,0,0,0,0,0,0,0,0],"sum_hessian":[3.36E2,2.12E2,1.24E2,9.5E1,1.17E2,9.2E1,3.2E1,5.2E1,4.3E1,6.4E1,5.3E1,2.9E1,6.3E1,2.2E1,1E1],"tree_param":{"num_deleted":"0","num_feature":"65","num_nodes":"15","size_leaf_vector":"1"}},{"base_weights":[5.925521E-3,-8.1893575E-1,6.7195827E-1,-1.2702433E0,-5.962852E-1,3.0489507E-1,1.3098352E0,-1.0533309E-1,-5.403408E-2,-1.8465837E-2,-4.4030767E-2,3.6293638E-3,3.2592226E-2,5.3725433E-2,1.00374475E-1],"categories":[],"categories_nodes":[],"categories_segments":[],"categories_sizes":[],"default_left":[0,0,0,0,0,0,0,0,0,0,0,0,0,0,0],"id":33,"left_children":[1,3,5,7,9,11,13,-1,-1,-1,-1,-1,-1,-1,-1],"loss_changes":[1.8569292E2,1.4415627E1,4.3385033E1,5.492462E0,6.3217735E0,9.624571E0,9.006943E0,0E0,0E0,0E0,0E0,0E0,0E0,0E0,0E0],"parents":[2147483647,0,0,1,1,2,2,3,3,4,4,5,5,6,6],"right_children":[2,4,6,8,10,12,14,-1,-1,-1,-1,-1,-1,-1,-1],"split_conditions":[1.585E1,9.55E0,1.9398E1,1.04E1,7.695134E1,1.955E1,2.45E1,-1.0533309E-1,-5.403408E-2,-1.8465837E-2,-4.4030767E-2,3.6293638E-3,3.2592226E-2,5.3725433E-2,1.00374475E-1],"split_indices":[58,35,34,58,31,58,58,0,0,0,0,0,0,0,0],"split_type":[0,0,0,0,0,0,0,0,0,0,0,0,0,0,0],"sum_hessian":[3.36E2,1.5E2,1.86E2,4.8E1,1.02E2,1.19E2,6.7E1,7E0,4.1E1,5.8E1,4.4E1,7.2E1,4.7E1,5.2E1,1.5E1],"tree_param":{"num_deleted":"0","num_feature":"65","num_nodes":"15","size_leaf_vector":"1"}},{"base_weights":[5.5354624E-3,-5.355731E-1,9.2754024E-1,-8.936646E-1,-8.137891E-2,6.600709E-1,1.5004195E0,-9.093504E-2,-3.9605677E-2,-1.1564933E-2,1.7382417E-2,2.1829683E-2,5.0626546E-2,6.521987E-2,1.2862454E-1],"categories":[],"categories_nodes":[],"categories_segments":[],"categories_sizes":[],"default_left":[0,0,0,0,0,0,0,0,0,0,0,0,0,0,0],"id":34,"left_children":[1,3,5,7,9,11,13,-1,-1,-1,-1,-1,-1,-1,-1],"loss_changes":[1.6862766E2,3.457025E1,1.816307E1,9.738045E0,6.1907773E0,6.4106445E0,4.8402863E0,0E0,0E0,0E0,0E0,0E0,0E0,0E0,0E0],"parents":[2147483647,0,0,1,1,2,2,3,3,4,4,5,5,6,6],"right_children":[2,4,6,8,10,12,14,-1,-1,-1,-1,-1,-1,-1,-1],"split_conditions":[1.89E1,1.44E1,2.28E1,1.045E1,1.765E1,1.9398E1,2.38E1,-9.093504E-2,-3.9605677E-2,-1.1564933E-2,1.7382417E-2,2.1829683E-2,5.0626546E-2,6.521987E-2,1.2862454E-1],"split_indices":[58,58,58,58,36,34,35,0,0,0,0,0,0,0,0],"split_type":[0,0,0,0,0,0,0,0,0,0,0,0,0,0,0],"sum_hessian":[3.36E2,2.12E2,1.24E2,1.18E2,9.4E1,8.6E1,3.8E1,1E1,1.08E2,7E1,2.4E1,5.4E1,3.2E1,3.4E1,4E0],"tree_param":{"num_deleted":"0","num_feature":"65","num_nodes":"15","size_leaf_vector":"1"}},{"base_weights":[5.678941E-3,-6.25917E-1,7.251827E-1,-8.419059E-1,-9.247377E-2,3.8282973E-1,1.222032E0,-8.970991E-2,-3.7740327E-2,-8.949466E-3,2.0827496E-2,9.284358E-3,3.5774153E-2,5.488507E-2,1.2347958E-1],"categories":[],"categories_nodes":[],"categories_segments":[],"categories_sizes":[],"default_left":[0,0,0,0,0,0,0,0,0,0,0,0,0,0,0],"id":35,"left_children":[1,3,5,7,9,11,13,-1,-1,-1,-1,-1,-1,-1,-1],"loss_changes":[1.5359872E2,2.0661354E1,2.6407623E1,9.262573E0,2.408597E0,6.0972576E0,7.2161484E0,0E0,0E0,0E0,0E0,0E0,0E0,0E0,0E0],"parents":[2147483647,0,0,1,1,2,2,3,3,4,4,5,5,6,6],"right_children":[2,4,6,8,10,12,14,-1,-1,-1,-1,-1,-1,-1,-1],"split_conditions":[1.575E1,1.52E1,2.145E1,6.95E0,2.1925E1,1.9198E1,2.38E1,-8.970991E-2,-3.7740327E-2,-8.949466E-3,2.0827496E-2,9.284358E-3,3.5774153E-2,5.488507E-2,1.2347958E-1],"split_indices":[36,58,58,35,63,34,35,0,0,0,0,0,0,0,0],"split_type":[0,0,0,0,0,0,0,0,0,0,0,0,0,0,0],"sum_hessian":[3.36E2,1.79E2,1.57E2,1.27E2,5.2E1,9.4E1,6.3E1,9E0,1.18E2,4.5E1,7E0,6E1,3.4E1,5.9E1,4E0],"tree_param":{"num_deleted":"0","num_feature":"65","num_nodes":"15","size_leaf_vector":"1"}},{"base_weights":[5.7148747E-3,-7.3060656E-1,5.655962E-1,-9.515E-1,-3.250482E-1,1.9952582E-1,1.0647849E0,-9.921083E-2,-4.3559384E-2,-1.6532118E-3,-1.9609127E-2,5.702366E-4,2.2972532E-2,4.5900483E-2,9.576771E-2],"categories":[],"categories_nodes":[],"categories_segments":[],"categories_sizes":[],"default_left":[0,0,0,0,0,0,0,0,0,0,0,0,0,0,0],"id":36,"left_children":[1,3,5,7,9,11,13,-1,-1,-1,-1,-1,-1,-1,-1],"loss_changes":[1.3934236E2,1.2770157E1,3.487328E1,6.0677185E0,1.0259466E0,5.4712615E0,8.353935E0,0E0,0E0,0E0,0E0,0E0,0E0,0E0,0E0],"parents":[2147483647,0,0,1,1,2,2,3,3,4,4,5,5,6,6],"right_children":[2,4,6,8,10,12,14,-1,-1,-1,-1,-1,-1,-1,-1],"split_conditions":[1.43E1,1.405E1,2.06E1,6.6E0,3.5909817E1,1.615E1,2.55E1,-9.921083E-2,-4.3559384E-2,-1.6532118E-3,-1.9609127E-2,5.702366E-4,2.2972532E-2,4.5900483E-2,9.576771E-2],"split_indices":[36,58,58,35,46,35,58,0,0,0,0,0,0,0,0],"split_type":[0,0,0,0,0,0,0,0,0,0,0,0,0,0,0],"sum_hessian":[3.36E2,1.45E2,1.91E2,9.3E1,5.2E1,1.11E2,8E1,5E0,8.8E1,1E1,4.2E1,6.5E1,4.6E1,7E1,1E1],"tree_param":{"num_deleted":"0","num_feature":"65","num_nodes":"15","size_leaf_vector":"1"}},{"base_weights":[5.4326667E-3,-6.768385E-1,5.563285E-1,-1.1714213E0,-5.175125E-1,2.4859597E-1,1.0912045E0,-9.7306006E-2,-4.7580544E-2,-3.0819947E-2,-5.638226E-3,3.09059E-3,2.6374225E-2,4.6689596E-2,9.554092E-2],"categories":[],"categories_nodes":[],"categories_segments":[],"categories_sizes":[],"default_left":[0,0,0,0,0,0,0,0,0,0,0,0,0,0,0],"id":37,"left_children":[1,3,5,7,9,11,13,-1,-1,-1,-1,-1,-1,-1,-1],"loss_changes":[1.27041466E2,1.1292564E1,3.0508698E1,4.2783775E0,4.573286E0,6.21843E0,6.988884E0,0E0,0E0,0E0,0E0,0E0,0E0,0E0,0E0],"parents":[2147483647,0,0,1,1,2,2,3,3,4,4,5,5,6,6],"right_children":[2,4,6,8,10,12,14,-1,-1,-1,-1,-1,-1,-1,-1],"split_conditions":[1.585E1,1.06E1,1.9398E1,1.04E1,1.495E1,1.955E1,2.55E1,-9.7306006E-2,-4.7580544E-2,-3.0819947E-2,-5.638226E-3,3.09059E-3,2.6374225E-2,4.6689596E-2,9.554092E-2],"split_indices":[58,36,34,58,36,58,58,0,0,0,0,0,0,0,0],"split_type":[0,0,0,0,0,0,0,0,0,0,0,0,0,0,0],"sum_hessian":[3.36E2,1.5E2,1.86E2,3.5E1,1.15E2,1.19E2,6.7E1,6E0,2.9E1,9.2E1,2.3E1,7.2E1,4.7E1,5.8E1,9E0],"tree_param":{"num_deleted":"0","num_feature":"65","num_nodes":"15","size_leaf_vector":"1"}},{"base_weights":[5.132358E-3,-4.4291306E-1,7.6856065E-1,-8.385231E-1,-1.5220484E-1,5.3954E-1,1.2597463E0,-7.762286E-2,-3.6493782E-2,4.375964E-3,-1.9285394E-2,1.7500386E-2,4.1953873E-2,5.420369E-2,1.1187521E-1],"categories":[],"categories_nodes":[],"categories_segments":[],"categories_sizes":[],"default_left":[0,0,0,0,0,0,0,0,0,0,0,0,0,0,0],"id":38,"left_children":[1,3,5,7,9,11,13,-1,-1,-1,-1,-1,-1,-1,-1],"loss_changes":[1.15611435E2,2.4368881E1,1.3381775E1,5.8479424E0,6.9748187E0,4.645485E0,4.273224E0,0E0,0E0,0E0,0E0,0E0,0E0,0E0,0E0],"parents":[2147483647,0,0,1,1,2,2,3,3,4,4,5,5,6,6],"right_children":[2,4,6,8,10,12,14,-1,-1,-1,-1,-1,-1,-1,-1],"split_conditions":[1.89E1,1.09E1,2.28E1,1.045E1,6.517915E1,1.9398E1,2.38E1,-7.762286E-2,-3.6493782E-2,4.375964E-3,-1.9285394E-2,1.7500386E-2,4.1953873E-2,5.420369E-2,1.1187521E-1],"split_indices":[58,35,58,58,28,34,35,0,0,0,0,0,0,0,0],"split_type":[0,0,0,0,0,0,0,0,0,0,0,0,0,0,0],"sum_hessian":[3.36E2,2.12E2,1.24E2,8.9E1,1.23E2,8.6E1,3.8E1,1E1,7.9E1,6.1E1,6.2E1,5.4E1,3.2E1,3.4E1,4E0],"tree_param":{"num_deleted":"0","num_feature":"65","num_nodes":"15","size_leaf_vector":"1"}},{"base_weights":[5.1623327E-3,-6.163899E-1,5.0702983E-1,-1.1929793E0,-4.9803454E-1,2.0440657E-1,9.5622176E-1,-8.980907E-2,-4.5397934E-2,-3.148327E-2,-9.799792E-3,-5.832867E-3,1.6360352E-2,3.820186E-2,7.611799E-2],"categories":[],"categories_nodes":[],"categories_segments":[],"categories_sizes":[],"default_left":[0,0,0,0,0,0,0,0,0,0,0,0,0,0,0],"id":39,"left_children":[1,3,5,7,9,11,13,-1,-1,-1,-1,-1,-1,-1,-1],"loss_changes":[1.0543525E2,9.7104645E0,2.522456E1,2.6672707E0,4.925804E0,4.4934E0,6.997093E0,0E0,0E0,0E0,0E0,0E0,0E0,0E0,0E0],"parents":[2147483647,0,0,1,1,2,2,3,3,4,4,5,5,6,6],"right_children":[2,4,6,8,10,12,14,-1,-1,-1,-1,-1,-1,-1,-1],"split_conditions":[1.585E1,8.35E0,1.8E1,1.04E1,1.4405499E1,1.40055E1,2.475E1,-8.980907E-2,-4.5397934E-2,-3.148327E-2,-9.799792E-3,-5.832867E-3,1.6360352E-2,3.820186E-2,7.611799E-2],"split_indices":[58,35,35,58,38,38,58,0,0,0,0,0,0,0,0],"split_type":[0,0,0,0,0,0,0,0,0,0,0,0,0,0,0],"sum_hessian":[3.36E2,1.5E2,1.86E2,2.4E1,1.26E2,1.12E2,7.4E1,6E0,1.8E1,8.7E1,3.9E1,3.1E1,8.1E1,5.7E1,1.7E1],"tree_param":{"num_deleted":"0","num_feature":"65","num_nodes":"15","size_leaf_vector":"1"}},{"base_weights":[4.750767E-3,-3.829881E-1,7.371058E-1,-7.4500513E-1,-1.04126E-1,5.7898146E-1,1.3581798E0,-4.8395567E-2,-2.2978626E-2,-1.512166E-2,3.7508332E-3,1.881144E-2,3.84836E-2,1.0041348E-1,5.3301442E-2],"categories":[],"categories_nodes":[],"categories_segments":[],"categories_sizes":[],"default_left":[0,0,0,0,0,0,0,0,0,0,0,0,0,0,0],"id":40,"left_children":[1,3,5,7,9,11,13,-1,-1,-1,-1,-1,-1,-1,-1],"loss_changes":[9.597766E1,2.2232998E1,1.0703842E1,5.663143E0,4.4988728E0,3.3834171E0,2.2273903E0,0E0,0E0,0E0,0E0,0E0,0E0,0E0,0E0],"parents":[2147483647,0,0,1,1,2,2,3,3,4,4,5,5,6,6],"right_children":[2,4,6,8,10,12,14,-1,-1,-1,-1,-1,-1,-1,-1],"split_conditions":[1.75915E1,1.35E1,2.395E1,1.32055E1,1.43E1,1.9398E1,3.947243E1,-4.8395567E-2,-2.2978626E-2,-1.512166E-2,3.7508332E-3,1.881144E-2,3.84836E-2,1.0041348E-1,5.3301442E-2],"split_indices":[37,58,58,38,36,34,46,0,0,0,0,0,0,0,0],"split_type":[0,0,0,0,0,0,0,0,0,0,0,0,0,0,0],"sum_hessian":[3.36E2,2.2E2,1.16E2,9.5E1,1.25E2,9.4E1,2.2E1,5.2E1,4.3E1,5.9E1,6.6E1,4.7E1,4.7E1,5E0,1.7E1],"tree_param":{"num_deleted":"0","num_feature":"65","num_nodes":"15","size_leaf_vector":"1"}},{"base_weights":[4.893648E-3,-4.6303114E-1,5.5731523E-1,-8.096887E-1,-2.4610959E-1,3.4313008E-1,1.0421847E0,-6.449368E-2,-3.217626E-2,-1.8981969E-2,-8.400662E-4,8.225428E-3,2.9675692E-2,4.5289293E-2,1.00338876E-1],"categories":[],"categories_nodes":[],"categories_segments":[],"categories_sizes":[],"default_left":[0,0,0,0,0,0,0,0,0,0,0,0,0,0,0],"id":41,"left_children":[1,3,5,7,9,11,13,-1,-1,-1,-1,-1,-1,-1,-1],"loss_changes":[8.7369774E1,1.3561871E1,1.5739429E1,4.7551765E0,3.4842434E0,4.777272E0,4.366047E0,0E0,0E0,0E0,0E0,0E0,0E0,0E0,0E0],"parents":[2147483647,0,0,1,1,2,2,3,3,4,4,5,5,6,6],"right_children":[2,4,6,8,10,12,14,-1,-1,-1,-1,-1,-1,-1,-1],"split_conditions":[1.72E1,1.26E1,2.225E1,8.5E0,9E0,1.68555E1,2.38E1,-6.449368E-2,-3.217626E-2,-1.8981969E-2,-8.400662E-4,8.225428E-3,2.9675692E-2,4.5289293E-2,1.00338876E-1],"split_indices":[58,58,58,32,55,38,35,0,0,0,0,0,0,0,0],"split_type":[0,0,0,0,0,0,0,0,0,0,0,0,0,0,0],"sum_hessian":[3.36E2,1.82E2,1.54E2,6.9E1,1.13E2,1.08E2,4.6E1,1.6E1,5.3E1,7.1E1,4.2E1,6.4E1,4.4E1,4.2E1,4E0],"tree_param":{"num_deleted":"0","num_feature":"65","num_nodes":"15","size_leaf_vector":"1"}},{"base_weights":[4.847807E-3,-3.6731714E-1,6.389781E-1,-6.976817E-1,-1.24574155E-1,4.6620265E-1,1.1065278E0,-8.046978E-2,-3.125587E-2,3.8214033E-3,-1.6020425E-2,1.0307583E-2,2.9040856E-2,7.736833E-2,3.904679E-2],"categories":[],"categories_nodes":[],"categories_segments":[],"categories_sizes":[],"default_left":[0,0,0,0,0,0,0,0,0,0,0,0,0,0,0],"id":42,"left_children":[1,3,5,7,9,11,13,-1,-1,-1,-1,-1,-1,-1,-1],"loss_changes":[7.9767075E1,1.6994343E1,9.581772E0,4.9481506E0,4.905517E0,2.6521873E0,3.5282097E0,0E0,0E0,0E0,0E0,0E0,0E0,0E0,0E0],"parents":[2147483647,0,0,1,1,2,2,3,3,4,4,5,5,6,6],"right_children":[2,4,6,8,10,12,14,-1,-1,-1,-1,-1,-1,-1,-1],"split_conditions":[1.89E1,1.09E1,2.31E1,6.6E0,6.517915E1,1.77915E1,1.753125E1,-8.046978E-2,-3.125587E-2,3.8214033E-3,-1.6020425E-2,1.0307583E-2,2.9040856E-2,7.736833E-2,3.904679E-2],"split_indices":[58,35,36,35,28,37,64,0,0,0,0,0,0,0,0],"split_type":[0,0,0,0,0,0,0,0,0,0,0,0,0,0,0],"sum_hessian":[3.36E2,2.12E2,1.24E2,8.9E1,1.23E2,9.2E1,3.2E1,5E0,8.4E1,6.1E1,6.2E1,2.9E1,6.3E1,1.2E1,2E1],"tree_param":{"num_deleted":"0","num_feature":"65","num_nodes":"15","size_leaf_vector":"1"}},{"base_weights":[4.699693E-3,-5.249122E-1,4.1228214E-1,-9.8756933E-1,-4.1733652E-1,1.4370917E-1,7.7523667E-1,-7.367056E-2,-3.719271E-2,-2.6129073E-2,-6.042378E-3,-2.5590757E-4,1.5945025E-2,3.4347177E-2,8.8220485E-2],"categories":[],"categories_nodes":[],"categories_segments":[],"categories_sizes":[],"default_left":[0,0,0,0,0,0,0,0,0,0,0,0,0,0,0],"id":43,"left_children":[1,3,5,7,9,11,13,-1,-1,-1,-1,-1,-1,-1,-1],"loss_changes":[7.2961395E1,6.9041367E0,1.8507225E1,2.1009846E0,3.7125263E0,2.895764E0,5.8622627E0,0E0,0E0,0E0,0E0,0E0,0E0,0E0,0E0],"parents":[2147483647,0,0,1,1,2,2,3,3,4,4,5,5,6,6],"right_children":[2,4,6,8,10,12,14,-1,-1,-1,-1,-1,-1,-1,-1],"split_conditions":[1.56E1,1.145E1,2.06E1,6.75E0,1E1,1.57555E1,2.31E1,-7.367056E-2,-3.719271E-2,-2.6129073E-2,-6.042378E-3,-2.5590757E-4,1.5945025E-2,3.4347177E-2,8.8220485E-2],"split_indices":[58,58,58,35,55,38,35,0,0,0,0,0,0,0,0],"split_type":[0,0,0,0,0,0,0,0,0,0,0,0,0,0,0],"sum_hessian":[3.36E2,1.46E2,1.9E2,2.6E1,1.2E2,1.1E2,8E1,7E0,1.9E1,8.8E1,3.2E1,6E1,5E1,7.5E1,5E0],"tree_param":{"num_deleted":"0","num_feature":"65","num_nodes":"15","size_leaf_vector":"1"}},{"base_weights":[4.450238E-3,-3.2167548E-1,6.045938E-1,-7.111078E-1,-1.3779591E-1,4.6835053E-1,1.1528983E0,-5.682789E-2,-2.8200058E-2,-1.0680652E-2,1.3457231E-2,1.48596335E-2,3.1164754E-2,8.605697E-2,4.4971738E-2],"categories":[],"categories_nodes":[],"categories_segments":[],"categories_sizes":[],"default_left":[0,0,0,0,0,0,0,0,0,0,0,0,0,0,0],"id":44,"left_children":[1,3,5,7,9,11,13,-1,-1,-1,-1,-1,-1,-1,-1],"loss_changes":[6.6152885E1,1.5584305E1,8.34967E0,3.740036E0,4.685453E0,2.3872013E0,1.7646008E0,0E0,0E0,0E0,0E0,0E0,0E0,0E0,0E0],"parents":[2147483647,0,0,1,1,2,2,3,3,4,4,5,5,6,6],"right_children":[2,4,6,8,10,12,14,-1,-1,-1,-1,-1,-1,-1,-1],"split_conditions":[1.615E1,1.26E1,2.395E1,8.5E0,2.1258333E1,1.9398E1,3.947243E1,-5.682789E-2,-2.8200058E-2,-1.0680652E-2,1.3457231E-2,1.48596335E-2,3.1164754E-2,8.605697E-2,4.4971738E-2],"split_indices":[35,58,58,32,63,34,46,0,0,0,0,0,0,0,0],"split_type":[0,0,0,0,0,0,0,0,0,0,0,0,0,0,0],"sum_hessian":[3.36E2,2.18E2,1.18E2,6.9E1,1.49E2,9.6E1,2.2E1,1.6E1,5.3E1,1.26E2,2.3E1,4.7E1,4.9E1,5E0,1.7E1],"tree_param":{"num_deleted":"0","num_feature":"65","num_nodes":"15","size_leaf_vector":"1"}},{"base_weights":[4.5090686E-3,-4.7553417E-1,3.7841377E-1,-6.387798E-1,-1.8788642E-1,2.0690867E-1,8.544898E-1,-6.596941E-2,-2.8442642E-2,1.7365456E-3,-1.2540993E-2,3.6938644E-3,2.2758707E-2,2.1333838E-2,5.3097438E-2],"categories":[],"categories_nodes":[],"categories_segments":[],"categories_sizes":[],"default_left":[0,0,0,0,0,0,0,0,0,0,0,0,0,0,0],"id":45,"left_children":[1,3,5,7,9,11,13,-1,-1,-1,-1,-1,-1,-1,-1],"loss_changes":[6.0668217E1,6.8296547E0,1.5336597E1,3.7231941E0,7.792654E-1,4.6231937E0,3.9845734E0,0E0,0E0,0E0,0E0,0E0,0E0,0E0,0E0],"parents":[2147483647,0,0,1,1,2,2,3,3,4,4,5,5,6,6],"right_children":[2,4,6,8,10,12,14,-1,-1,-1,-1,-1,-1,-1,-1],"split_conditions":[1.44E1,1.405E1,2.21E1,1.03E1,3.5909817E1,1.95E1,6.4924874E0,-6.596941E-2,-2.8442642E-2,1.7365456E-3,-1.2540993E-2,3.6938644E-3,2.2758707E-2,2.1333838E-2,5.3097438E-2],"split_indices":[36,58,58,58,46,36,50,0,0,0,0,0,0,0,0],"split_type":[0,0,0,0,0,0,0,0,0,0,0,0,0,0,0],"sum_hessian":[3.36E2,1.47E2,1.89E2,9.3E1,5.4E1,1.4E2,4.9E1,7E0,8.6E1,1.2E1,4.2E1,9.2E1,4.8E1,1.7E1,3.2E1],"tree_param":{"num_deleted":"0","num_feature":"65","num_nodes":"15","size_leaf_vector":"1"}},{"base_weights":[4.270644E-3,-4.569546E-1,3.5922268E-1,-1.1426766E0,-3.985612E-1,1.5571664E-1,7.2503924E-1,-6.54182E-2,-1.3236125E-2,-2.479165E-2,-5.0458335E-3,4.888044E-3,3.0205026E-2,3.1944614E-2,8.4135644E-2],"categories":[],"categories_nodes":[],"categories_segments":[],"categories_sizes":[],"default_left":[0,0,0,0,0,0,0,0,0,0,0,0,0,0,0],"id":46,"left_children":[1,3,5,7,9,11,13,-1,-1,-1,-1,-1,-1,-1,-1],"loss_changes":[5.5335377E1,5.4306927E0,1.4106258E1,1.2537708E0,3.9164448E0,3.1632602E0,4.534981E0,0E0,0E0,0E0,0E0,0E0,0E0,0E0,0E0],"parents":[2147483647,0,0,1,1,2,2,3,3,4,4,5,5,6,6],"right_children":[2,4,6,8,10,12,14,-1,-1,-1,-1,-1,-1,-1,-1],"split_conditions":[1.56E1,1.045E1,1.9398E1,7.25E0,1E1,2.35E1,2.38E1,-6.54182E-2,-1.3236125E-2,-2.479165E-2,-5.0458335E-3,4.888044E-3,3.0205026E-2,3.1944614E-2,8.4135644E-2],"split_indices":[58,58,34,33,55,63,35,0,0,0,0,0,0,0,0],"split_type":[0,0,0,0,0,0,0,0,0,0,0,0,0,0,0],"sum_hessian":[3.36E2,1.46E2,1.9E2,1E1,1.36E2,1.23E2,6.7E1,8E0,2E0,1.02E2,3.4E1,1.1E2,1.3E1,6.3E1,4E0],"tree_param":{"num_deleted":"0","num_feature":"65","num_nodes":"15","size_leaf_vector":"1"}},{"base_weights":[4.1837213E-3,-2.916361E-1,5.082273E-1,-6.221904E-1,-1.2892476E-1,3.9470488E-1,9.945132E-1,-4.0593963E-2,-1.7868E-2,-1.2447503E-2,2.666803E-3,9.064897E-3,2.509403E-2,1.374658E-3,5.426506E-2],"categories":[],"categories_nodes":[],"categories_segments":[],"categories_sizes":[],"default_left":[0,0,0,0,0,0,0,0,0,0,0,0,0,0,0],"id":47,"left_children":[1,3,5,7,9,11,13,-1,-1,-1,-1,-1,-1,-1,-1],"loss_changes":[5.039697E1,1.1375975E1,6.508007E0,3.226345E0,3.1634092E0,2.2648296E0,1.9894161E0,0E0,0E0,0E0,0E0,0E0,0E0,0E0,0E0],"parents":[2147483647,0,0,1,1,2,2,3,3,4,4,5,5,6,6],"right_children":[2,4,6,8,10,12,14,-1,-1,-1,-1,-1,-1,-1,-1],"split_conditions":[1.89E1,1.26E1,2.47E1,1.3155499E1,1.485E1,1.55055E1,6.4924874E0,-4.0593963E-2,-1.7868E-2,-1.2447503E-2,2.666803E-3,9.064897E-3,2.509403E-2,1.374658E-3,5.426506E-2],"split_indices":[58,58,36,38,36,38,50,0,0,0,0,0,0,0,0],"split_type":[0,0,0,0,0,0,0,0,0,0,0,0,0,0,0],"sum_hessian":[3.36E2,2.12E2,1.24E2,6.9E1,1.43E2,1.02E2,2.2E1,3.9E1,3E1,8.6E1,5.7E1,3.5E1,6.7E1,2E0,2E1],"tree_param":{"num_deleted":"0","num_feature":"65","num_nodes":"15","size_leaf_vector":"1"}},{"base_weights":[4.038593E-3,-4.1596478E-1,3.2726613E-1,-6.547754E-2,-3.752783E-1,1.8239295E-1,7.6725215E-1,-2.3313353E-2,-6.988144E-3,2.6852004E-3,1.8453162E-2,3.279173E-2,7.859961E-2],"categories":[],"categories_nodes":[],"categories_segments":[],"categories_sizes":[],"default_left":[0,0,0,0,0,0,0,0,0,0,0,0,0],"id":48,"left_children":[1,3,5,-1,7,9,11,-1,-1,-1,-1,-1,-1],"loss_changes":[4.5886124E1,4.853016E0,1.2034809E1,0E0,2.977789E0,3.4634275E0,3.1831512E0,0E0,0E0,0E0,0E0,0E0,0E0],"parents":[2147483647,0,0,1,1,2,2,4,4,5,5,6,6],"right_children":[2,4,6,-1,8,10,12,-1,-1,-1,-1,-1,-1],"split_conditions":[1.56E1,6.6E0,2.225E1,-6.547754E-2,1.4405499E1,1.66555E1,2.38E1,-2.3313353E-2,-6.988144E-3,2.6852004E-3,1.8453162E-2,3.279173E-2,7.859961E-2],"split_indices":[58,35,58,0,38,38,35,0,0,0,0,0,0],"split_type":[0,0,0,0,0,0,0,0,0,0,0,0,0],"sum_hessian":[3.36E2,1.46E2,1.9E2,5E0,1.41E2,1.44E2,4.6E1,1.01E2,4E1,8.6E1,5.8E1,4.2E1,4E0],"tree_param":{"num_deleted":"0","num_feature":"65","num_nodes":"13","size_leaf_vector":"1"}},{"base_weights":[3.9457157E-3,-2.658572E-1,4.636583E-1,-5.689556E-1,-1.1667146E-1,4.109047E-1,7.20727E-2,-6.274932E-2,-2.4843825E-2,-8.106995E-3,1.4258328E-2,1.3626762E-2,3.0291865E-2],"categories":[],"categories_nodes":[],"categories_segments":[],"categories_sizes":[],"default_left":[0,0,0,0,0,0,0,0,0,0,0,0,0],"id":49,"left_children":[1,3,5,7,9,11,-1,-1,-1,-1,-1,-1,-1],"loss_changes":[4.192198E1,9.565045E0,5.8554783E0,2.8378181E0,2.677254E0,3.0716152E0,0E0,0E0,0E0,0E0,0E0,0E0,0E0],"parents":[2147483647,0,0,1,1,2,2,3,3,4,4,5,5],"right_children":[2,4,6,8,10,12,-1,-1,-1,-1,-1,-1,-1],"split_conditions":[1.89E1,1.26E1,2.6E1,6.6E0,1.91E1,1.92E1,7.20727E-2,-6.274932E-2,-2.4843825E-2,-8.106995E-3,1.4258328E-2,1.3626762E-2,3.0291865E-2],"split_indices":[58,58,58,35,36,35,0,0,0,0,0,0,0],"split_type":[0,0,0,0,0,0,0,0,0,0,0,0,0],"sum_hessian":[3.36E2,2.12E2,1.24E2,6.9E1,1.43E2,1.19E2,5E0,5E0,6.4E1,1.29E2,1.4E1,7.1E1,4.8E1],"tree_param":{"num_deleted":"0","num_feature":"65","num_nodes":"13","size_leaf_vector":"1"}},{"base_weights":[3.8510275E-3,-3.7843642E-1,3.0161256E-1,-5.120787E-1,-1.4314891E-1,1.693717E-1,7.0035875E-1,-6.085294E-2,-2.2939915E-2,2.9608838E-3,-1.0050023E-2,1.2495241E-3,1.58734E-2,1.6084049E-2,4.4271432E-2],"categories":[],"categories_nodes":[],"categories_segments":[],"categories_sizes":[],"default_left":[0,0,0,0,0,0,0,0,0,0,0,0,0,0,0],"id":50,"left_children":[1,3,5,7,9,11,13,-1,-1,-1,-1,-1,-1,-1,-1],"loss_changes":[3.847502E1,4.5804615E0,9.900181E0,2.972412E0,6.558E-1,3.0711203E0,3.0090199E0,0E0,0E0,0E0,0E0,0E0,0E0,0E0,0E0],"parents":[2147483647,0,0,1,1,2,2,3,3,4,4,5,5,6,6],"right_children":[2,4,6,8,10,12,14,-1,-1,-1,-1,-1,-1,-1,-1],"split_conditions":[1.44E1,1.405E1,2.225E1,9.7E0,3.5909817E1,1.91E1,6.4924874E0,-6.085294E-2,-2.2939915E-2,2.9608838E-3,-1.0050023E-2,1.2495241E-3,1.58734E-2,1.6084049E-2,4.4271432E-2],"split_indices":[36,58,58,58,46,58,50,0,0,0,0,0,0,0,0],"split_type":[0,0,0,0,0,0,0,0,0,0,0,0,0,0,0],"sum_hessian":[3.36E2,1.47E2,1.89E2,9.3E1,5.4E1,1.43E2,4.6E1,5E0,8.8E1,1.2E1,4.2E1,7.3E1,7E1,1.6E1,3E1],"tree_param":{"num_deleted":"0","num_feature":"65","num_nodes":"15","size_leaf_vector":"1"}},{"base_weights":[3.6187214E-3,-3.6012885E-1,2.869399E-1,-5.953903E-1,-2.3402208E-1,1.2270376E-1,5.797944E-1,-5.5325E-2,-2.4446486E-2,-1.6500374E-2,-5.1787733E-3,3.6502895E-3,2.5221163E-2,2.4865737E-2,6.74599E-2],"categories":[],"categories_nodes":[],"categories_segments":[],"categories_sizes":[],"default_left":[0,0,0,0,0,0,0,0,0,0,0,0,0,0,0],"id":51,"left_children":[1,3,5,7,9,11,13,-1,-1,-1,-1,-1,-1,-1,-1],"loss_changes":[3.4833675E1,4.2515373E0,9.067342E0,2.234066E0,1.192874E0,2.2965686E0,3.644312E0,0E0,0E0,0E0,0E0,0E0,0E0,0E0,0E0],"parents":[2147483647,0,0,1,1,2,2,3,3,4,4,5,5,6,6],"right_children":[2,4,6,8,10,12,14,-1,-1,-1,-1,-1,-1,-1,-1],"split_conditions":[1.44E1,1.225E1,1.9398E1,6.75E0,1.635E1,2.35E1,2.595E1,-5.5325E-2,-2.4446486E-2,-1.6500374E-2,-5.1787733E-3,3.6502895E-3,2.5221163E-2,2.4865737E-2,6.74599E-2],"split_indices":[36,58,34,35,59,63,58,0,0,0,0,0,0,0,0],"split_type":[0,0,0,0,0,0,0,0,0,0,0,0,0,0,0],"sum_hessian":[3.36E2,1.47E2,1.89E2,5E1,9.7E1,1.22E2,6.7E1,7E0,4.3E1,5.5E1,4.2E1,1.09E2,1.3E1,6.2E1,5E0],"tree_param":{"num_deleted":"0","num_feature":"65","num_nodes":"15","size_leaf_vector":"1"}},{"base_weights":[3.4961815E-3,-2.2299008E-1,4.2027766E-1,-4.9802276E-1,-9.043766E-2,3.6652815E-1,6.1395414E-2,-5.1287897E-2,-2.0736346E-2,2.6737193E-3,-1.1106005E-2,1.0154875E-2,2.378515E-2],"categories":[],"categories_nodes":[],"categories_segments":[],"categories_sizes":[],"default_left":[0,0,0,0,0,0,0,0,0,0,0,0,0],"id":52,"left_children":[1,3,5,7,9,11,-1,-1,-1,-1,-1,-1,-1],"loss_changes":[3.1904926E1,7.938878E0,4.7156944E0,2.6956177E0,2.8355303E0,1.919591E0,0E0,0E0,0E0,0E0,0E0,0E0,0E0],"parents":[2147483647,0,0,1,1,2,2,3,3,4,4,5,5],"right_children":[2,4,6,8,10,12,-1,-1,-1,-1,-1,-1,-1],"split_conditions":[1.615E1,1.02E1,2.295E1,1.04E1,5.06364E1,2.06E1,6.1395414E-2,-5.1287897E-2,-2.0736346E-2,2.6737193E-3,-1.1106005E-2,1.0154875E-2,2.378515E-2],"split_indices":[35,35,35,58,31,58,0,0,0,0,0,0,0],"split_type":[0,0,0,0,0,0,0,0,0,0,0,0,0],"sum_hessian":[3.36E2,2.18E2,1.18E2,7E1,1.48E2,1.12E2,6E0,8E0,6.2E1,7.1E1,7.7E1,4.6E1,6.6E1],"tree_param":{"num_deleted":"0","num_feature":"65","num_nodes":"13","size_leaf_vector":"1"}},{"base_weights":[3.3655618E-3,-3.308399E-1,2.6056367E-1,-9.855108E-1,-2.91067E-1,1.4459716E-1,6.127888E-1,-5.4119207E-2,-7.684946E-3,-1.8392228E-2,-2.9523638E-3,1.8088535E-3,1.4879467E-2,2.5758063E-2,6.649138E-2],"categories":[],"categories_nodes":[],"categories_segments":[],"categories_sizes":[],"default_left":[0,0,0,0,0,0,0,0,0,0,0,0,0,0,0],"id":53,"left_children":[1,3,5,7,9,11,13,-1,-1,-1,-1,-1,-1,-1,-1],"loss_changes":[2.905372E1,3.540762E0,7.7130404E0,4.7828197E-1,2.472227E0,2.3944108E0,2.6050491E0,0E0,0E0,0E0,0E0,0E0,0E0,0E0,0E0],"parents":[2147483647,0,0,1,1,2,2,3,3,4,4,5,5,6,6],"right_children":[2,4,6,8,10,12,14,-1,-1,-1,-1,-1,-1,-1,-1],"split_conditions":[1.56E1,1.03E1,2.225E1,1.6E1,1E1,1.63055E1,2.38E1,-5.4119207E-2,-7.684946E-3,-1.8392228E-2,-2.9523638E-3,1.8088535E-3,1.4879467E-2,2.5758063E-2,6.649138E-2],"split_indices":[58,58,58,2,55,38,35,0,0,0,0,0,0,0,0],"split_type":[0,0,0,0,0,0,0,0,0,0,0,0,0,0,0],"sum_hessian":[3.36E2,1.46E2,1.9E2,7E0,1.39E2,1.44E2,4.6E1,6E0,1E0,1.04E2,3.5E1,8.5E1,5.9E1,4.2E1,4E0],"tree_param":{"num_deleted":"0","num_feature":"65","num_nodes":"15","size_leaf_vector":"1"}},{"base_weights":[3.2740121E-3,-2.0055097E-1,3.8824877E-1,-4.9745834E-1,-9.6767515E-2,3.4062466E-1,6.062619E-2,-5.5805743E-2,-2.1485426E-2,9.47786E-5,-1.4187068E-2,1.8649241E-2,-6.3340305E-3],"categories":[],"categories_nodes":[],"categories_segments":[],"categories_sizes":[],"default_left":[0,0,0,0,0,0,0,0,0,0,0,0,0],"id":54,"left_children":[1,3,5,7,9,11,-1,-1,-1,-1,-1,-1,-1],"loss_changes":[2.65214E1,6.761771E0,4.179861E0,1.9094877E0,3.044361E0,1.7409229E0,0E0,0E0,0E0,0E0,0E0,0E0,0E0],"parents":[2147483647,0,0,1,1,2,2,3,3,4,4,5,5],"right_children":[2,4,6,8,10,12,-1,-1,-1,-1,-1,-1,-1],"split_conditions":[1.75915E1,9.7E0,2.6E1,6.55E0,6.859858E1,1.0241E3,6.062619E-2,-5.5805743E-2,-2.1485426E-2,9.47786E-5,-1.4187068E-2,1.8649241E-2,-6.3340305E-3],"split_indices":[37,35,58,35,31,22,0,0,0,0,0,0,0],"split_type":[0,0,0,0,0,0,0,0,0,0,0,0,0],"sum_hessian":[3.36E2,2.2E2,1.16E2,5.6E1,1.64E2,1.11E2,5E0,4E0,5.2E1,1.08E2,5.6E1,1.04E2,7E0],"tree_param":{"num_deleted":"0","num_feature":"65","num_nodes":"13","size_leaf_vector":"1"}},{"base_weights":[3.0552272E-3,-2.0212565E-1,3.5265902E-1,-4.9770012E-1,-1.0840527E-1,3.0925307E-1,5.8100063E-2,-3.2569733E-2,-1.022811E-2,1.7500149E-4,-1.1371875E-2,1.705343E-2,-8.939922E-3],"categories":[],"categories_nodes":[],"categories_segments":[],"categories_sizes":[],"default_left":[0,0,0,0,0,0,0,0,0,0,0,0,0],"id":55,"left_children":[1,3,5,7,9,11,-1,-1,-1,-1,-1,-1,-1],"loss_changes":[2.424497E1,5.8464346E0,4.031929E0,2.1644878E0,2.1720111E0,1.9242983E0,0E0,0E0,0E0,0E0,0E0,0E0,0E0],"parents":[2147483647,0,0,1,1,2,2,3,3,4,4,5,5],"right_children":[2,4,6,8,10,12,-1,-1,-1,-1,-1,-1,-1],"split_conditions":[1.89E1,1.215E1,2.6E1,1.3155499E1,5E-1,7.9719604E1,5.8100063E-2,-3.2569733E-2,-1.022811E-2,1.7500149E-4,-1.1371875E-2,1.705343E-2,-8.939922E-3],"split_indices":[58,58,58,38,56,30,0,0,0,0,0,0,0],"split_type":[0,0,0,0,0,0,0,0,0,0,0,0,0],"sum_hessian":[3.36E2,2.12E2,1.24E2,5E1,1.62E2,1.19E2,5E0,3.2E1,1.8E1,8.4E1,7.8E1,1.12E2,7E0],"tree_param":{"num_deleted":"0","num_feature":"65","num_nodes":"13","size_leaf_vector":"1"}},{"base_weights":[2.9385055E-3,-1.8525992E-1,3.4926218E-1,-4.1859218E-1,-7.513647E-2,2.7092952E-1,7.7374375E-1,-4.955758E-2,-1.7965032E-2,-5.7959505E-3,1.0607474E-2,6.126858E-3,1.7500712E-2,5.4268528E-2,2.3838287E-2],"categories":[],"categories_nodes":[],"categories_segments":[],"categories_sizes":[],"default_left":[0,0,0,0,0,0,0,0,0,0,0,0,0,0,0],"id":56,"left_children":[1,3,5,7,9,11,13,-1,-1,-1,-1,-1,-1,-1,-1],"loss_changes":[2.2029545E1,5.5958314E0,3.7472115E0,2.020234E0,1.7820301E0,1.1541367E0,1.148366E0,0E0,0E0,0E0,0E0,0E0,0E0,0E0,0E0],"parents":[2147483647,0,0,1,1,2,2,3,3,4,4,5,5,6,6],"right_children":[2,4,6,8,10,12,14,-1,-1,-1,-1,-1,-1,-1,-1],"split_conditions":[1.615E1,1.26E1,2.475E1,9.7E0,2.1558332E1,1.63055E1,4.122054E1,-4.955758E-2,-1.7965032E-2,-5.7959505E-3,1.0607474E-2,6.126858E-3,1.7500712E-2,5.4268528E-2,2.3838287E-2],"split_indices":[35,58,58,58,63,38,30,0,0,0,0,0,0,0,0],"split_type":[0,0,0,0,0,0,0,0,0,0,0,0,0,0,0],"sum_hessian":[3.36E2,2.18E2,1.18E2,6.9E1,1.49E2,1.01E2,1.7E1,5E0,6.4E1,1.31E2,1.8E1,3.6E1,6.5E1,7E0,1E1],"tree_param":{"num_deleted":"0","num_feature":"65","num_nodes":"15","size_leaf_vector":"1"}},{"base_weights":[2.9076454E-3,-2.740534E-1,2.1863042E-1,-4.802855E-2,-2.4333201E-1,1.2538093E-1,5.4423857E-1,-1.6547933E-2,-4.8555974E-3,6.14888E-4,1.1691924E-2,1.696148E-2,4.4531975E-2],"categories":[],"categories_nodes":[],"categories_segments":[],"categories_sizes":[],"default_left":[0,0,0,0,0,0,0,0,0,0,0,0,0],"id":57,"left_children":[1,3,5,-1,7,9,11,-1,-1,-1,-1,-1,-1],"loss_changes":[2.019459E1,2.8876972E0,5.700695E0,0E0,1.800087E0,1.824568E0,2.6805105E0,0E0,0E0,0E0,0E0,0E0,0E0],"parents":[2147483647,0,0,1,1,2,2,4,4,5,5,6,6],"right_children":[2,4,6,-1,8,10,12,-1,-1,-1,-1,-1,-1],"split_conditions":[1.44E1,6.6E0,1.96E1,-4.802855E-2,1.405E1,1.91E1,1.8391737E1,-1.6547933E-2,-4.8555974E-3,6.14888E-4,1.1691924E-2,1.696148E-2,4.4531975E-2],"split_indices":[36,35,35,0,58,58,48,0,0,0,0,0,0],"split_type":[0,0,0,0,0,0,0,0,0,0,0,0,0],"sum_hessian":[3.36E2,1.47E2,1.89E2,5E0,1.42E2,1.48E2,4.1E1,8.8E1,5.4E1,7.3E1,7.5E1,2.7E1,1.4E1],"tree_param":{"num_deleted":"0","num_feature":"65","num_nodes":"13","size_leaf_vector":"1"}},{"base_weights":[2.7752575E-3,-1.5914077E-1,3.3835778E-1,-4.473893E-1,-7.978899E-2,2.9833278E-1,5.596083E-2,-4.9084418E-2,-1.890404E-2,3.1850298E-4,-1.239871E-2,1.6546363E-2,-7.1157697E-3],"categories":[],"categories_nodes":[],"categories_segments":[],"categories_sizes":[],"default_left":[0,0,0,0,0,0,0,0,0,0,0,0,0],"id":58,"left_children":[1,3,5,7,9,11,-1,-1,-1,-1,-1,-1,-1],"loss_changes":[1.836514E1,5.1793547E0,3.1040277E0,1.4433861E0,2.6099014E0,1.5695419E0,0E0,0E0,0E0,0E0,0E0,0E0,0E0],"parents":[2147483647,0,0,1,1,2,2,3,3,4,4,5,5],"right_children":[2,4,6,8,10,12,-1,-1,-1,-1,-1,-1,-1],"split_conditions":[1.7741499E1,9.55E0,2.38E1,9.7E0,6.954076E1,1.0241E3,5.596083E-2,-4.9084418E-2,-1.890404E-2,3.1850298E-4,-1.239871E-2,1.6546363E-2,-7.1157697E-3],"split_indices":[37,35,35,58,31,22,0,0,0,0,0,0,0],"split_type":[0,0,0,0,0,0,0,0,0,0,0,0,0],"sum_hessian":[3.36E2,2.27E2,1.09E2,4.8E1,1.79E2,1.05E2,4E0,4E0,4.4E1,1.19E2,6E1,9.8E1,7E0],"tree_param":{"num_deleted":"0","num_feature":"65","num_nodes":"13","size_leaf_vector":"1"}},{"base_weights":[2.592913E-3,-2.5153917E-1,1.981679E-1,-4.4736672E-2,-2.2259055E-1,1.0578885E-1,4.789508E-1,-1.4515767E-2,-2.1317233E-3,9.6817734E-4,1.1395099E-2,8.242153E-3,3.178767E-2],"categories":[],"categories_nodes":[],"categories_segments":[],"categories_sizes":[],"default_left":[0,0,0,0,0,0,0,0,0,0,0,0,0],"id":59,"left_children":[1,3,5,-1,7,9,11,-1,-1,-1,-1,-1,-1],"loss_changes":[1.679938E1,2.537921E0,4.9035783E0,0E0,1.7182465E0,1.5258682E0,2.2100868E0,0E0,0E0,0E0,0E0,0E0,0E0],"parents":[2147483647,0,0,1,1,2,2,4,4,5,5,6,6],"right_children":[2,4,6,-1,8,10,12,-1,-1,-1,-1,-1,-1],"split_conditions":[1.56E1,6.6E0,2.225E1,-4.4736672E-2,1.6822916E1,1.63055E1,6.4924874E0,-1.4515767E-2,-2.1317233E-3,9.6817734E-4,1.1395099E-2,8.242153E-3,3.178767E-2],"split_indices":[58,35,58,0,64,38,50,0,0,0,0,0,0],"split_type":[0,0,0,0,0,0,0,0,0,0,0,0,0],"sum_hessian":[3.36E2,1.46E2,1.9E2,5E0,1.41E2,1.44E2,4.6E1,1.02E2,3.9E1,8.5E1,5.9E1,1.6E1,3E1],"tree_param":{"num_deleted":"0","num_feature":"65","num_nodes":"13","size_leaf_vector":"1"}},{"base_weights":[2.436539E-3,-2.3976222E-1,1.910838E-1,-4.3430503E-2,-2.1170034E-1,1.01051874E-1,4.5532298E-1,-1.4396138E-2,-4.225477E-3,3.147012E-3,1.89912E-2,4.7243036E-2,1.74349E-2],"categories":[],"categories_nodes":[],"categories_segments":[],"categories_sizes":[],"default_left":[0,0,0,0,0,0,0,0,0,0,0,0,0],"id":60,"left_children":[1,3,5,-1,7,9,11,-1,-1,-1,-1,-1,-1],"loss_changes":[1.544339E1,2.4278193E0,4.4740815E0,0E0,1.3620219E0,1.4953922E0,2.1759815E0,0E0,0E0,0E0,0E0,0E0,0E0],"parents":[2147483647,0,0,1,1,2,2,4,4,5,5,6,6],"right_children":[2,4,6,-1,8,10,12,-1,-1,-1,-1,-1,-1],"split_conditions":[1.44E1,9.7E0,2.0298E1,-4.3430503E-2,1.405E1,2.35E1,6.378868E1,-1.4396138E-2,-4.225477E-3,3.147012E-3,1.89912E-2,4.7243036E-2,1.74349E-2],"split_indices":[36,58,34,0,58,63,42,0,0,0,0,0,0],"split_type":[0,0,0,0,0,0,0,0,0,0,0,0,0],"sum_hessian":[3.36E2,1.47E2,1.89E2,5E0,1.42E2,1.42E2,4.7E1,8.8E1,5.4E1,1.26E2,1.6E1,7E0,4E1],"tree_param":{"num_deleted":"0","num_feature":"65","num_nodes":"13","size_leaf_vector":"1"}},{"base_weights":[2.3880089E-3,-1.5363906E-1,2.6823902E-1,-3.95737E-1,-8.0812156E-2,2.3172674E-1,9.5377827E-1,-2.6113382E-2,-8.423204E-3,-9.548924E-4,-1.2773222E-2,1.3435775E-2,-4.6694833E-3,2.1605778E-2,5.5329036E-2],"categories":[],"categories_nodes":[],"categories_segments":[],"categories_sizes":[],"default_left":[0,0,0,0,0,0,0,0,0,0,0,0,0,0,0],"id":61,"left_children":[1,3,5,7,9,11,13,-1,-1,-1,-1,-1,-1,-1,-1],"loss_changes":[1.4019958E1,3.7234745E0,2.9078093E0,1.3211088E0,1.773581E0,1.468174E0,9.727478E-5,0E0,0E0,0E0,0E0,0E0,0E0,0E0,0E0],"parents":[2147483647,0,0,1,1,2,2,3,3,4,4,5,5,6,6],"right_children":[2,4,6,8,10,12,14,-1,-1,-1,-1,-1,-1,-1,-1],"split_conditions":[1.89E1,9.55E0,2.6E1,3.3944388E2,8.089004E1,1.0239E3,1.0218E3,-2.6113382E-2,-8.423204E-3,-9.548924E-4,-1.2773222E-2,1.3435775E-2,-4.6694833E-3,2.1605778E-2,5.5329036E-2],"split_indices":[58,35,58,45,31,17,16,0,0,0,0,0,0,0,0],"split_type":[0,0,0,0,0,0,0,0,0,0,0,0,0,0,0],"sum_hessian":[3.36E2,2.12E2,1.24E2,4.8E1,1.64E2,1.19E2,5E0,3E1,1.8E1,1.22E2,4.2E1,1.07E2,1.2E1,2E0,3E0],"tree_param":{"num_deleted":"0","num_feature":"65","num_nodes":"15","size_leaf_vector":"1"}},{"base_weights":[2.379921E-3,-1.3355532E-1,2.8411496E-1,-3.2423502E-1,-4.7024842E-2,1.830327E-1,5.247832E-1,-4.3648776E-2,-1.3922246E-2,2.2823724E-3,-7.3806993E-3,1.1109439E-2,-9.612548E-3,1.8706398E-2,4.6499144E-2],"categories":[],"categories_nodes":[],"categories_segments":[],"categories_sizes":[],"default_left":[0,0,0,0,0,0,0,0,0,0,0,0,0,0,0],"id":62,"left_children":[1,3,5,7,9,11,13,-1,-1,-1,-1,-1,-1,-1,-1],"loss_changes":[1.2944277E1,3.746663E0,2.5799494E0,1.5409336E0,1.4795868E0,1.2035918E0,1.6055231E0,0E0,0E0,0E0,0E0,0E0,0E0,0E0,0E0],"parents":[2147483647,0,0,1,1,2,2,3,3,4,4,5,5,6,6],"right_children":[2,4,6,8,10,12,14,-1,-1,-1,-1,-1,-1,-1,-1],"split_conditions":[1.7741499E1,1.02E1,1.8391737E1,6.55E0,4E0,1.024E3,2.3098E1,-4.3648776E-2,-1.3922246E-2,2.2823724E-3,-7.3806993E-3,1.1109439E-2,-9.612548E-3,1.8706398E-2,4.6499144E-2],"split_indices":[37,35,48,35,3,21,34,0,0,0,0,0,0,0,0],"split_type":[0,0,0,0,0,0,0,0,0,0,0,0,0,0,0],"sum_hessian":[3.36E2,2.27E2,1.09E2,7E1,1.57E2,7.8E1,3.1E1,4E0,6.6E1,8.2E1,7.5E1,7.1E1,7E0,2.4E1,7E0],"tree_param":{"num_deleted":"0","num_feature":"65","num_nodes":"15","size_leaf_vector":"1"}},{"base_weights":[2.2727107E-3,-2.0925461E-1,1.670294E-1,-3.9568465E-2,-1.833669E-1,8.8124126E-2,4.052279E-1,-1.2481048E-2,-3.6410931E-3,3.1567626E-3,2.2797108E-2,2.6584601E-2,3.4577914E-3],"categories":[],"categories_nodes":[],"categories_segments":[],"categories_sizes":[],"default_left":[0,0,0,0,0,0,0,0,0,0,0,0,0],"id":63,"left_children":[1,3,5,-1,7,9,11,-1,-1,-1,-1,-1,-1],"loss_changes":[1.1779584E1,2.0851917E0,3.5353622E0,0E0,1.0291619E0,1.2947695E0,1.9607806E0,0E0,0E0,0E0,0E0,0E0,0E0],"parents":[2147483647,0,0,1,1,2,2,4,4,5,5,6,6],"right_children":[2,4,6,-1,8,10,12,-1,-1,-1,-1,-1,-1],"split_conditions":[1.44E1,9.7E0,2.225E1,-3.9568465E-2,1.405E1,2.0499462E1,1.8602083E1,-1.2481048E-2,-3.6410931E-3,3.1567626E-3,2.2797108E-2,2.6584601E-2,3.4577914E-3],"split_indices":[36,58,58,0,58,53,64,0,0,0,0,0,0],"split_type":[0,0,0,0,0,0,0,0,0,0,0,0,0],"sum_hessian":[3.36E2,1.47E2,1.89E2,5E0,1.42E2,1.43E2,4.6E1,8.8E1,5.4E1,1.35E2,8E0,3.3E1,1.3E1],"tree_param":{"num_deleted":"0","num_feature":"65","num_nodes":"13","size_leaf_vector":"1"}},{"base_weights":[2.1599536E-3,-1.09684825E-1,2.882244E-1,-2.6692292E-1,-1.708019E-2,1.9039536E-1,5.545299E-1,-4.0861838E-2,-1.159121E-2,3.5450503E-3,-5.783721E-3,1.1120628E-2,-9.676314E-3,1.9253286E-2,4.33254E-2],"categories":[],"categories_nodes":[],"categories_segments":[],"categories_sizes":[],"default_left":[0,0,0,0,0,0,0,0,0,0,0,0,0,0,0],"id":64,"left_children":[1,3,5,7,9,11,13,-1,-1,-1,-1,-1,-1,-1,-1],"loss_changes":[1.0813866E1,3.5337584E0,2.3693986E0,1.5489235E0,1.3440648E0,9.1578126E-1,9.8806477E-1,0E0,0E0,0E0,0E0,0E0,0E0,0E0,0E0],"parents":[2147483647,0,0,1,1,2,2,3,3,4,4,5,5,6,6],"right_children":[2,4,6,8,10,12,14,-1,-1,-1,-1,-1,-1,-1,-1],"split_conditions":[1.805E1,1.09E1,1.8391737E1,6.55E0,4E0,1.024E3,2.3098E1,-4.0861838E-2,-1.159121E-2,3.5450503E-3,-5.783721E-3,1.1120628E-2,-9.676314E-3,1.9253286E-2,4.33254E-2],"split_indices":[32,35,48,35,3,21,34,0,0,0,0,0,0,0,0],"split_type":[0,0,0,0,0,0,0,0,0,0,0,0,0,0,0],"sum_hessian":[3.36E2,2.42E2,9.4E1,8.9E1,1.53E2,7E1,2.4E1,4E0,8.5E1,8.1E1,7.2E1,6.5E1,5E0,1.7E1,7E0],"tree_param":{"num_deleted":"0","num_feature":"65","num_nodes":"15","size_leaf_vector":"1"}},{"base_weights":[2.079627E-3,-1.8832225E-1,1.5581547E-1,-3.4490964E-1,-1.0738878E-1,8.038364E-2,3.7257883E-1,-2.2991246E-2,-6.358345E-3,-6.9357874E-3,4.8597096E-3,9.26864E-3,-1.5152076E-4,3.9330866E-2,1.4135177E-2],"categories":[],"categories_nodes":[],"categories_segments":[],"categories_sizes":[],"default_left":[0,0,0,0,0,0,0,0,0,0,0,0,0,0,0],"id":65,"left_children":[1,3,5,7,9,11,13,-1,-1,-1,-1,-1,-1,-1,-1],"loss_changes":[9.89387E0,1.8766084E0,3.0276604E0,1.2176456E0,6.607877E-1,1.2266214E0,1.5637879E0,0E0,0E0,0E0,0E0,0E0,0E0,0E0,0E0],"parents":[2147483647,0,0,1,1,2,2,3,3,4,4,5,5,6,6],"right_children":[2,4,6,8,10,12,14,-1,-1,-1,-1,-1,-1,-1,-1],"split_conditions":[1.3E1,1.225E1,2.0298E1,1.3155499E1,3.4811136E2,1E0,6.378868E1,-2.2991246E-2,-6.358345E-3,-6.9357874E-3,4.8597096E-3,9.26864E-3,-1.5152076E-4,3.9330866E-2,1.4135177E-2],"split_indices":[35,58,34,38,44,4,42,0,0,0,0,0,0,0,0],"split_type":[0,0,0,0,0,0,0,0,0,0,0,0,0,0,0],"sum_hessian":[3.36E2,1.5E2,1.86E2,5E1,1E2,1.39E2,4.7E1,3.2E1,1.8E1,8.7E1,1.3E1,6.1E1,7.8E1,7E0,4E1],"tree_param":{"num_deleted":"0","num_feature":"65","num_nodes":"15","size_leaf_vector":"1"}},{"base_weights":[2.0680528E-3,-1.1878532E-1,2.244615E-1,-3.1553918E-1,-5.870702E-2,1.9138421E-1,8.1551963E-1,-2.187652E-2,-4.3526175E-3,1.194815E-3,-6.573995E-3,-4.362758E-3,1.1099448E-2,4.436125E-2,1.1424827E-2],"categories":[],"categories_nodes":[],"categories_segments":[],"categories_sizes":[],"default_left":[0,0,0,0,0,0,0,0,0,0,0,0,0,0,0],"id":66,"left_children":[1,3,5,7,9,11,13,-1,-1,-1,-1,-1,-1,-1,-1],"loss_changes":[9.084211E0,2.5701945E0,2.170443E0,1.3834553E0,1.0190485E0,9.915261E-1,4.9828053E-2,0E0,0E0,0E0,0E0,0E0,0E0,0E0,0E0],"parents":[2147483647,0,0,1,1,2,2,3,3,4,4,5,5,6,6],"right_children":[2,4,6,8,10,12,14,-1,-1,-1,-1,-1,-1,-1,-1],"split_conditions":[1.615E1,1.215E1,2.6E1,1.3155499E1,4.9444675E1,2.5772076E0,1.0179E3,-2.187652E-2,-4.3526175E-3,1.194815E-3,-6.573995E-3,-4.362758E-3,1.1099448E-2,4.436125E-2,1.1424827E-2],"split_indices":[35,58,58,38,31,50,22,0,0,0,0,0,0,0,0],"split_type":[0,0,0,0,0,0,0,0,0,0,0,0,0,0,0],"sum_hessian":[3.36E2,2.18E2,1.18E2,5E1,1.68E2,1.13E2,5E0,3.2E1,1.8E1,7.9E1,8.9E1,1.1E1,1.02E2,4E0,1E0],"tree_param":{"num_deleted":"0","num_feature":"65","num_nodes":"15","size_leaf_vector":"1"}},{"base_weights":[2.0565945E-3,-9.629635E-2,2.5361142E-1,-1.9267148E-1,2.1981517E-2,2.220984E-1,4.5750406E-2,-3.0212779E-2,-7.910169E-3,-1.4224869E-2,2.2786146E-3,-3.6033154E-3,1.3570874E-2],"categories":[],"categories_nodes":[],"categories_segments":[],"categories_sizes":[],"default_left":[0,0,0,0,0,0,0,0,0,0,0,0,0],"id":67,"left_children":[1,3,5,7,9,11,-1,-1,-1,-1,-1,-1,-1],"loss_changes":[8.362191E0,2.7742038E0,1.7768259E0,1.8053985E0,8.082733E-1,1.3542895E0,0E0,0E0,0E0,0E0,0E0,0E0,0E0],"parents":[2147483647,0,0,1,1,2,2,3,3,4,4,5,5],"right_children":[2,4,6,8,10,12,-1,-1,-1,-1,-1,-1,-1],"split_conditions":[1.99E1,1.40555E1,2.71E1,1.08E1,1.04E1,2.5772076E0,4.5750406E-2,-3.0212779E-2,-7.910169E-3,-1.4224869E-2,2.2786146E-3,-3.6033154E-3,1.3570874E-2],"split_indices":[58,38,36,58,59,50,0,0,0,0,0,0,0],"split_type":[0,0,0,0,0,0,0,0,0,0,0,0,0],"sum_hessian":[3.36E2,2.42E2,9.4E1,1.33E2,1.09E2,9.1E1,3E0,9E0,1.24E2,7E0,1.02E2,1.3E1,7.8E1],"tree_param":{"num_deleted":"0","num_feature":"65","num_nodes":"13","size_leaf_vector":"1"}},{"base_weights":[1.970277E-3,-9.197508E-2,2.4225187E-1,-2.9598466E-1,-4.0239464E-2,1.5506744E-1,4.8016557E-1,-2.0539073E-2,-4.6553235E-3,8.8721514E-4,-7.960113E-3,5.8487705E-3,2.4331339E-2,1.6581366E-2,3.7717797E-2],"categories":[],"categories_nodes":[],"categories_segments":[],"categories_sizes":[],"default_left":[0,0,0,0,0,0,0,0,0,0,0,0,0,0,0],"id":68,"left_children":[1,3,5,7,9,11,13,-1,-1,-1,-1,-1,-1,-1,-1],"loss_changes":[7.6294966E0,2.5528479E0,1.8960667E0,1.1029525E0,1.3479176E0,8.3979046E-1,7.6802826E-1,0E0,0E0,0E0,0E0,0E0,0E0,0E0,0E0],"parents":[2147483647,0,0,1,1,2,2,3,3,4,4,5,5,6,6],"right_children":[2,4,6,8,10,12,14,-1,-1,-1,-1,-1,-1,-1,-1],"split_conditions":[1.805E1,9.55E0,1.8391737E1,3.3944388E2,7.996691E1,1.5342294E1,2.3098E1,-2.0539073E-2,-4.6553235E-3,8.8721514E-4,-7.960113E-3,5.8487705E-3,2.4331339E-2,1.6581366E-2,3.7717797E-2],"split_indices":[32,35,48,45,30,52,34,0,0,0,0,0,0,0,0],"split_type":[0,0,0,0,0,0,0,0,0,0,0,0,0,0,0],"sum_hessian":[3.36E2,2.42E2,9.4E1,4.8E1,1.94E2,7E1,2.4E1,3E1,1.8E1,1.31E2,6.3E1,6.4E1,6E0,1.7E1,7E0],"tree_param":{"num_deleted":"0","num_feature":"65","num_nodes":"15","size_leaf_vector":"1"}},{"base_weights":[2.026988E-3,-1.62473E-1,1.2862107E-1,-3.356124E-2,-1.3983227E-1,1.0086141E-1,5.7370096E-1,-1.2182383E-2,-3.044924E-3,7.0072577E-4,9.054595E-3,3.998607E-2,1.2603188E-2],"categories":[],"categories_nodes":[],"categories_segments":[],"categories_sizes":[],"default_left":[0,0,0,0,0,0,0,0,0,0,0,0,0],"id":69,"left_children":[1,3,5,-1,7,9,11,-1,-1,-1,-1,-1,-1],"loss_changes":[7.03883E0,1.5993619E0,2.3019927E0,0E0,1.148787E0,1.2586279E0,5.980818E-1,0E0,0E0,0E0,0E0,0E0,0E0],"parents":[2147483647,0,0,1,1,2,2,4,4,5,5,6,6],"right_children":[2,4,6,-1,8,10,12,-1,-1,-1,-1,-1,-1],"split_conditions":[1.56E1,9.7E0,2.55E1,-3.356124E-2,8.211235E0,1.60055E1,4.122054E1,-1.2182383E-2,-3.044924E-3,7.0072577E-4,9.054595E-3,3.998607E-2,1.2603188E-2],"split_indices":[58,58,58,0,54,38,30,0,0,0,0,0,0],"split_type":[0,0,0,0,0,0,0,0,0,0,0,0,0],"sum_hessian":[3.36E2,1.46E2,1.9E2,5E0,1.41E2,1.8E2,1E1,6E1,8.1E1,8.7E1,9.3E1,5E0,5E0],"tree_param":{"num_deleted":"0","num_feature":"65","num_nodes":"13","size_leaf_vector":"1"}},{"base_weights":[1.96612E-3,-8.472404E-2,2.2368973E-1,-2.697976E-1,-3.537961E-2,1.9522665E-1,4.1120913E-2,-1.9016793E-2,-3.1805087E-3,-2.5232797E-3,1.393261E-2,-3.6618167E-3,1.2016557E-2],"categories":[],"categories_nodes":[],"categories_segments":[],"categories_sizes":[],"default_left":[0,0,0,0,0,0,0,0,0,0,0,0,0],"id":70,"left_children":[1,3,5,7,9,11,-1,-1,-1,-1,-1,-1,-1],"loss_changes":[6.496515E0,2.2096152E0,1.4583998E0,1.1381788E0,9.2839557E-1,1.1316185E0,0E0,0E0,0E0,0E0,0E0,0E0,0E0],"parents":[2147483647,0,0,1,1,2,2,3,3,4,4,5,5],"right_children":[2,4,6,8,10,12,-1,-1,-1,-1,-1,-1,-1],"split_conditions":[1.99E1,1.215E1,2.71E1,1.3155499E1,1.7574675E1,2.5772076E0,4.1120913E-2,-1.9016793E-2,-3.1805087E-3,-2.5232797E-3,1.393261E-2,-3.6618167E-3,1.2016557E-2],"split_indices":[58,58,36,38,53,50,0,0,0,0,0,0,0],"split_type":[0,0,0,0,0,0,0,0,0,0,0,0,0],"sum_hessian":[3.36E2,2.42E2,9.4E1,5E1,1.92E2,9.1E1,3E0,3.2E1,1.8E1,1.84E2,8E0,1.3E1,7.8E1],"tree_param":{"num_deleted":"0","num_feature":"65","num_nodes":"13","size_leaf_vector":"1"}},{"base_weights":[1.982802E-3,-1.5171441E-1,1.1605711E-1,-1.1063535E-1,-4.3312147E-1,6.200156E-2,3.102105E-1,-7.0638733E-4,-1.0270714E-2,-1.1692472E-2,-3.2649018E-2,-2.014621E-3,5.753335E-3,8.0827E-3,2.8341765E-2],"categories":[],"categories_nodes":[],"categories_segments":[],"categories_sizes":[],"default_left":[0,0,0,0,0,0,0,0,0,0,0,0,0,0,0],"id":71,"left_children":[1,3,5,7,9,11,13,-1,-1,-1,-1,-1,-1,-1,-1],"loss_changes":[5.9261956E0,1.6167128E0,2.0168097E0,1.1587526E0,6.3591194E-1,8.351575E-1,1.5095468E0,0E0,0E0,0E0,0E0,0E0,0E0,0E0,0E0],"parents":[2147483647,0,0,1,1,2,2,3,3,4,4,5,5,6,6],"right_children":[2,4,6,8,10,12,14,-1,-1,-1,-1,-1,-1,-1,-1],"split_conditions":[1.275E1,1.0243E3,1.96E1,7.7975784E1,5.0721317E1,5.369916E0,1.98555E1,-7.0638733E-4,-1.0270714E-2,-1.1692472E-2,-3.2649018E-2,-2.014621E-3,5.753335E-3,8.0827E-3,2.8341765E-2],"split_indices":[32,18,35,31,25,51,38,0,0,0,0,0,0,0,0],"split_type":[0,0,0,0,0,0,0,0,0,0,0,0,0,0,0],"sum_hessian":[3.36E2,1.43E2,1.93E2,1.26E2,1.7E1,1.52E2,4.1E1,6.3E1,6.3E1,1E1,7E0,5.2E1,1E2,2.7E1,1.4E1],"tree_param":{"num_deleted":"0","num_feature":"65","num_nodes":"15","size_leaf_vector":"1"}},{"base_weights":[1.8388822E-3,-7.759106E-2,2.0499295E-1,-2.143666E-1,-2.100924E-2,1.269212E-1,4.18517E-1,-5.963196E-3,-1.8719016E-2,1.3162689E-3,-6.152108E-3,7.812597E-3,-1.0843515E-2,1.4438428E-2,3.290682E-2],"categories":[],"categories_nodes":[],"categories_segments":[],"categories_sizes":[],"default_left":[0,0,0,0,0,0,0,0,0,0,0,0,0,0,0],"id":72,"left_children":[1,3,5,7,9,11,13,-1,-1,-1,-1,-1,-1,-1,-1],"loss_changes":[5.453912E0,1.8760756E0,1.53055E0,1.0358093E0,8.387754E-1,7.4982595E-1,5.8720684E-1,0E0,0E0,0E0,0E0,0E0,0E0,0E0,0E0],"parents":[2147483647,0,0,1,1,2,2,3,3,4,4,5,5,6,6],"right_children":[2,4,6,8,10,12,14,-1,-1,-1,-1,-1,-1,-1,-1],"split_conditions":[1.805E1,1.02E1,1.8391737E1,8E0,7.996691E1,1.024E3,2.3098E1,-5.963196E-3,-1.8719016E-2,1.3162689E-3,-6.152108E-3,7.812597E-3,-1.0843515E-2,1.4438428E-2,3.290682E-2],"split_indices":[32,35,48,1,30,21,34,0,0,0,0,0,0,0,0],"split_type":[0,0,0,0,0,0,0,0,0,0,0,0,0,0,0],"sum_hessian":[3.36E2,2.42E2,9.4E1,7E1,1.72E2,7E1,2.4E1,4.5E1,2.5E1,1.18E2,5.4E1,6.5E1,5E0,1.7E1,7E0],"tree_param":{"num_deleted":"0","num_feature":"65","num_nodes":"15","size_leaf_vector":"1"}},{"base_weights":[1.7908645E-3,-9.485434E-2,1.5449136E-1,-5.981941E-1,-7.9434074E-2,1.3009803E-1,6.4100295E-1,-1.5867068E-2,-3.8663324E-2,-5.037365E-4,-7.950818E-3,8.01026E-3,-7.1963086E-3,3.4777433E-2,9.206868E-3],"categories":[],"categories_nodes":[],"categories_segments":[],"categories_sizes":[],"default_left":[0,0,0,0,0,0,0,0,0,0,0,0,0,0,0],"id":73,"left_children":[1,3,5,7,9,11,13,-1,-1,-1,-1,-1,-1,-1,-1],"loss_changes":[4.988023E0,1.5591408E0,1.4712682E0,4.962802E-2,1.1133927E0,1.0625694E0,2.1443605E-2,0E0,0E0,0E0,0E0,0E0,0E0,0E0,0E0],"parents":[2147483647,0,0,1,1,2,2,3,3,4,4,5,5,6,6],"right_children":[2,4,6,8,10,12,14,-1,-1,-1,-1,-1,-1,-1,-1],"split_conditions":[1.87E1,9.7E0,2.6E1,3.2E1,7.0710677E-1,1.0239E3,1.0179E3,-1.5867068E-2,-3.8663324E-2,-5.037365E-4,-7.950818E-3,8.01026E-3,-7.1963086E-3,3.4777433E-2,9.206868E-3],"split_indices":[58,58,58,0,56,17,22,0,0,0,0,0,0,0,0],"split_type":[0,0,0,0,0,0,0,0,0,0,0,0,0,0,0],"sum_hessian":[3.36E2,2.06E2,1.3E2,5E0,2.01E2,1.25E2,5E0,3E0,2E0,1.08E2,9.3E1,1.13E2,1.2E1,4E0,1E0],"tree_param":{"num_deleted":"0","num_feature":"65","num_nodes":"15","size_leaf_vector":"1"}},{"base_weights":[1.6470946E-3,-7.114376E-2,1.8782109E-1,-2.3043764E-1,-2.8681938E-2,1.136196E-1,3.910405E-1,-1.5285718E-2,6.5592624E-4,-2.1593524E-3,1.2054014E-2,3.995237E-3,2.0522745E-2,1.3549021E-2,3.0614782E-2],"categories":[],"categories_nodes":[],"categories_segments":[],"categories_sizes":[],"default_left":[0,0,0,0,0,0,0,0,0,0,0,0,0,0,0],"id":74,"left_children":[1,3,5,7,9,11,13,-1,-1,-1,-1,-1,-1,-1,-1],"loss_changes":[4.580307E0,1.6370202E0,1.3880925E0,9.390502E-1,7.6560724E-1,6.777538E-1,4.9817753E-1,0E0,0E0,0E0,0E0,0E0,0E0,0E0,0E0],"parents":[2147483647,0,0,1,1,2,2,3,3,4,4,5,5,6,6],"right_children":[2,4,6,8,10,12,14,-1,-1,-1,-1,-1,-1,-1,-1],"split_conditions":[1.805E1,1.215E1,1.8391737E1,1.3529966E1,2.35E1,1.5342294E1,2.3098E1,-1.5285718E-2,6.5592624E-4,-2.1593524E-3,1.2054014E-2,3.995237E-3,2.0522745E-2,1.3549021E-2,3.0614782E-2],"split_indices":[32,58,48,48,63,52,34,0,0,0,0,0,0,0,0],"split_type":[0,0,0,0,0,0,0,0,0,0,0,0,0,0,0],"sum_hessian":[3.36E2,2.42E2,9.4E1,5E1,1.92E2,7E1,2.4E1,3.8E1,1.2E1,1.83E2,9E0,6.4E1,6E0,1.7E1,7E0],"tree_param":{"num_deleted":"0","num_feature":"65","num_nodes":"15","size_leaf_vector":"1"}},{"base_weights":[1.7541494E-3,-1.2634681E-1,9.915512E-2,-8.716229E-2,-3.5543743E-1,5.332802E-2,2.7757096E-1,-8.1162555E-3,1.9179523E-3,-2.9450977E-2,-9.8286765E-3,-6.6327574E-3,4.7855214E-3,5.701746E-3,2.3101388E-2],"categories":[],"categories_nodes":[],"categories_segments":[],"categories_sizes":[],"default_left":[0,0,0,0,0,0,0,0,0,0,0,0,0,0,0],"id":75,"left_children":[1,3,5,7,9,11,13,-1,-1,-1,-1,-1,-1,-1,-1],"loss_changes":[4.21733E0,1.2796328E0,1.5550436E0,1.194978E0,6.634774E-1,1.2265884E0,1.1237609E0,0E0,0E0,0E0,0E0,0E0,0E0,0E0,0E0],"parents":[2147483647,0,0,1,1,2,2,3,3,4,4,5,5,6,6],"right_children":[2,4,6,8,10,12,14,-1,-1,-1,-1,-1,-1,-1,-1],"split_conditions":[1.55E1,1.0243E3,1.9755499E1,1.0601679E1,1.35E1,4.2362785E1,1.95E1,-8.1162555E-3,1.9179523E-3,-2.9450977E-2,-9.8286765E-3,-6.6327574E-3,4.7855214E-3,5.701746E-3,2.3101388E-2],"split_indices":[58,18,38,54,62,26,35,0,0,0,0,0,0,0,0],"split_type":[0,0,0,0,0,0,0,0,0,0,0,0,0,0,0],"sum_hessian":[3.36E2,1.45E2,1.91E2,1.25E2,2E1,1.53E2,3.8E1,7.8E1,4.7E1,7E0,1.3E1,2.8E1,1.25E2,2.1E1,1.7E1],"tree_param":{"num_deleted":"0","num_feature":"65","num_nodes":"15","size_leaf_vector":"1"}},{"base_weights":[1.6115257E-3,-1.3076009E-1,8.855361E-2,-1.786087E-1,4.86438E-2,6.73627E-2,4.5423368E-1,-2.794714E-2,-7.7123092E-3,-1.0850716E-4,1.4649239E-2,1.9992231E-3,1.3979668E-2,1.1366599E-2,3.405247E-2],"categories":[],"categories_nodes":[],"categories_segments":[],"categories_sizes":[],"default_left":[0,0,0,0,0,0,0,0,0,0,0,0,0,0,0],"id":76,"left_children":[1,3,5,7,9,11,13,-1,-1,-1,-1,-1,-1,-1,-1],"loss_changes":[3.8899987E0,1.1589744E0,1.5502158E0,8.959701E-1,3.6069775E-1,1.116058E0,4.1128898E-1,0E0,0E0,0E0,0E0,0E0,0E0,0E0,0E0],"parents":[2147483647,0,0,1,1,2,2,3,3,4,4,5,5,6,6],"right_children":[2,4,6,8,10,12,14,-1,-1,-1,-1,-1,-1,-1,-1],"split_conditions":[1.40055E1,9.659258E-1,2.55E1,1.03E1,1.44E1,1.6940096E1,2.22E1,-2.794714E-2,-7.7123092E-3,-1.0850716E-4,1.4649239E-2,1.9992231E-3,1.3979668E-2,1.1366599E-2,3.405247E-2],"split_indices":[38,57,58,58,36,53,32,0,0,0,0,0,0,0,0],"split_type":[0,0,0,0,0,0,0,0,0,0,0,0,0,0,0],"sum_hessian":[3.36E2,1.33E2,2.03E2,1.05E2,2.8E1,1.93E2,1E1,5E0,1E2,2.4E1,4E0,1.72E2,2.1E1,6E0,4E0],"tree_param":{"num_deleted":"0","num_feature":"65","num_nodes":"15","size_leaf_vector":"1"}},{"base_weights":[1.6507056E-3,-6.3156754E-2,1.67404E-1,-5.321757E-1,-5.1067386E-2,9.904692E-2,3.5484192E-1,-1.3699365E-2,-3.495175E-2,7.7950733E-4,-5.728723E-3,6.2591434E-3,-1.0247818E-2,2.255497E-3,2.058452E-2],"categories":[],"categories_nodes":[],"categories_segments":[],"categories_sizes":[],"default_left":[0,0,0,0,0,0,0,0,0,0,0,0,0,0,0],"id":77,"left_children":[1,3,5,7,9,11,13,-1,-1,-1,-1,-1,-1,-1,-1],"loss_changes":[3.6306436E0,1.3506683E0,1.1820612E0,6.6960216E-2,1.0092938E0,5.8978146E-1,4.2162347E-1,0E0,0E0,0E0,0E0,0E0,0E0,0E0,0E0],"parents":[2147483647,0,0,1,1,2,2,3,3,4,4,5,5,6,6],"right_children":[2,4,6,8,10,12,14,-1,-1,-1,-1,-1,-1,-1,-1],"split_conditions":[1.805E1,9.7E0,1.8391737E1,3.2E1,5.5644035E1,1.024E3,1.0621525E1,-1.3699365E-2,-3.495175E-2,7.7950733E-4,-5.728723E-3,6.2591434E-3,-1.0247818E-2,2.255497E-3,2.058452E-2],"split_indices":[32,58,48,0,31,21,47,0,0,0,0,0,0,0,0],"split_type":[0,0,0,0,0,0,0,0,0,0,0,0,0,0,0],"sum_hessian":[3.36E2,2.42E2,9.4E1,5E0,2.37E2,7E1,2.4E1,3E0,2E0,1.16E2,1.21E2,6.5E1,5E0,4E0,2E1],"tree_param":{"num_deleted":"0","num_feature":"65","num_nodes":"15","size_leaf_vector":"1"}},{"base_weights":[1.4649315E-3,-6.723591E-2,1.4384972E-1,-5.161564E-1,-5.4855827E-2,7.884429E-2,2.9983658E-1,-1.3371718E-2,-3.378668E-2,8.2591496E-4,-5.8128135E-3,2.7603174E-3,2.5412703E-2,1.9019093E-2,5.3265097E-4],"categories":[],"categories_nodes":[],"categories_segments":[],"categories_sizes":[],"default_left":[0,0,0,0,0,0,0,0,0,0,0,0,0,0,0],"id":78,"left_children":[1,3,5,7,9,11,13,-1,-1,-1,-1,-1,-1,-1,-1],"loss_changes":[3.3061907E0,1.238835E0,1.091759E0,5.7428002E-2,9.791962E-1,7.738197E-1,7.413039E-1,0E0,0E0,0E0,0E0,0E0,0E0,0E0,0E0],"parents":[2147483647,0,0,1,1,2,2,3,3,4,4,5,5,6,6],"right_children":[2,4,6,8,10,12,14,-1,-1,-1,-1,-1,-1,-1,-1],"split_conditions":[1.7741499E1,6.6E0,1.8391737E1,2.8E1,5.5644035E1,2.2637817E1,2.5211567E1,-1.3371718E-2,-3.378668E-2,8.2591496E-4,-5.8128135E-3,2.7603174E-3,2.5412703E-2,1.9019093E-2,5.3265097E-4],"split_indices":[37,35,48,0,31,49,49,0,0,0,0,0,0,0,0],"split_type":[0,0,0,0,0,0,0,0,0,0,0,0,0,0,0],"sum_hessian":[3.36E2,2.27E2,1.09E2,5E0,2.22E2,7.8E1,3.1E1,3E0,2E0,1.03E2,1.19E2,7.5E1,3E0,2.4E1,7E0],"tree_param":{"num_deleted":"0","num_feature":"65","num_nodes":"15","size_leaf_vector":"1"}},{"base_weights":[1.37873E-3,-1.13645576E-1,7.977152E-2,-7.520858E-2,-3.2238284E-1,4.0361233E-2,2.4244088E-1,1.2022947E-3,-8.336082E-3,-2.6301349E-2,-9.149372E-3,-6.8030246E-3,3.8980132E-3,4.7792736E-3,2.0423096E-2],"categories":[],"categories_nodes":[],"categories_segments":[],"categories_sizes":[],"default_left":[0,0,0,0,0,0,0,0,0,0,0,0,0,0,0],"id":79,"left_children":[1,3,5,7,9,11,13,-1,-1,-1,-1,-1,-1,-1,-1],"loss_changes":[3.0478203E0,1.0749367E0,1.2787949E0,1.0667293E0,4.9987197E-1,1.0918329E0,9.118192E-1,0E0,0E0,0E0,0E0,0E0,0E0,0E0,0E0],"parents":[2147483647,0,0,1,1,2,2,3,3,4,4,5,5,6,6],"right_children":[2,4,6,8,10,12,14,-1,-1,-1,-1,-1,-1,-1,-1],"split_conditions":[1.505E1,1.0243E3,1.9755499E1,7.7975784E1,1.35E1,4.0003624E1,1.95E1,1.2022947E-3,-8.336082E-3,-2.6301349E-2,-9.149372E-3,-6.8030246E-3,3.8980132E-3,4.7792736E-3,2.0423096E-2],"split_indices":[58,18,38,31,62,26,35,0,0,0,0,0,0,0,0],"split_type":[0,0,0,0,0,0,0,0,0,0,0,0,0,0,0],"sum_hessian":[3.36E2,1.36E2,2E2,1.16E2,2E1,1.62E2,3.8E1,5.6E1,6E1,7E0,1.3E1,2.8E1,1.34E2,2.1E1,1.7E1],"tree_param":{"num_deleted":"0","num_feature":"65","num_nodes":"15","size_leaf_vector":"1"}},{"base_weights":[1.2493501E-3,-5.5850122E-2,1.4729065E-1,-3.8456317E-2,-3.3761624E-1,8.622465E-2,3.1482643E-1,1.9134599E-3,-5.217644E-3,-2.5917664E-2,-8.980597E-3,2.6727037E-3,1.688056E-2,2.4558766E-2,1.0147302E-2],"categories":[],"categories_nodes":[],"categories_segments":[],"categories_sizes":[],"default_left":[0,0,0,0,0,0,0,0,0,0,0,0,0,0,0],"id":80,"left_children":[1,3,5,7,9,11,13,-1,-1,-1,-1,-1,-1,-1,-1],"loss_changes":[2.8184292E0,1.177956E0,9.4477415E-1,1.1668614E0,3.066988E-1,5.668571E-1,3.9356756E-1,0E0,0E0,0E0,0E0,0E0,0E0,0E0,0E0],"parents":[2147483647,0,0,1,1,2,2,3,3,4,4,5,5,6,6],"right_children":[2,4,6,8,10,12,14,-1,-1,-1,-1,-1,-1,-1,-1],"split_conditions":[1.805E1,1.0274E3,1.8391737E1,5.5644035E1,1.1246759E1,1.4800554E1,1.0179E3,1.9134599E-3,-5.217644E-3,-2.5917664E-2,-8.980597E-3,2.6727037E-3,1.688056E-2,2.4558766E-2,1.0147302E-2],"split_indices":[32,20,48,31,50,52,22,0,0,0,0,0,0,0,0],"split_type":[0,0,0,0,0,0,0,0,0,0,0,0,0,0,0],"sum_hessian":[3.36E2,2.42E2,9.4E1,2.29E2,1.3E1,7E1,2.4E1,1.06E2,1.23E2,5E0,8E0,6.3E1,7E0,8E0,1.6E1],"tree_param":{"num_deleted":"0","num_feature":"65","num_nodes":"15","size_leaf_vector":"1"}},{"base_weights":[1.2347988E-3,-1.0751494E-1,7.26624E-2,-1.5070988E-1,5.4077413E-2,5.9257142E-2,5.051597E-1,-1.0271245E-2,-8.880943E-4,3.617668E-4,1.3873616E-2,1.6524574E-3,1.2017141E-2,2.7552396E-2,6.8929675E-3],"categories":[],"categories_nodes":[],"categories_segments":[],"categories_sizes":[],"default_left":[0,0,0,0,0,0,0,0,0,0,0,0,0,0,0],"id":81,"left_children":[1,3,5,7,9,11,13,-1,-1,-1,-1,-1,-1,-1,-1],"loss_changes":[2.6255386E0,9.434662E-1,1.1528043E0,7.6742196E-1,3.014565E-1,9.3648946E-1,2.5161386E-2,0E0,0E0,0E0,0E0,0E0,0E0,0E0,0E0],"parents":[2147483647,0,0,1,1,2,2,3,3,4,4,5,5,6,6],"right_children":[2,4,6,8,10,12,14,-1,-1,-1,-1,-1,-1,-1,-1],"split_conditions":[1.40055E1,9.659258E-1,2.6E1,3.3955035E2,1.44E1,1.6940096E1,1.0179E3,-1.0271245E-2,-8.880943E-4,3.617668E-4,1.3873616E-2,1.6524574E-3,1.2017141E-2,2.7552396E-2,6.8929675E-3],"split_indices":[38,57,58,45,36,53,22,0,0,0,0,0,0,0,0],"split_type":[0,0,0,0,0,0,0,0,0,0,0,0,0,0,0],"sum_hessian":[3.36E2,1.33E2,2.03E2,1.05E2,2.8E1,1.98E2,5E0,7.4E1,3.1E1,2.4E1,4E0,1.74E2,2.4E1,4E0,1E0],"tree_param":{"num_deleted":"0","num_feature":"65","num_nodes":"15","size_leaf_vector":"1"}},{"base_weights":[1.3252252E-3,-5.4660324E-2,1.2904638E-1,-4.6909508E-1,-4.361133E-2,-6.209252E-2,1.7875381E-1,-1.22490525E-2,-3.0577436E-2,-3.989264E-3,2.5730752E-3,4.305935E-3,-1.0906636E-2,1.4051951E-2,3.2164194E-3],"categories":[],"categories_nodes":[],"categories_segments":[],"categories_sizes":[],"default_left":[0,0,0,0,0,0,0,0,0,0,0,0,0,0,0],"id":82,"left_children":[1,3,5,7,9,11,13,-1,-1,-1,-1,-1,-1,-1,-1],"loss_changes":[2.4167852E0,1.0556278E0,9.897045E-1,4.17372E-2,7.951126E-1,5.2757734E-1,9.416516E-1,0E0,0E0,0E0,0E0,0E0,0E0,0E0,0E0],"parents":[2147483647,0,0,1,1,2,2,3,3,4,4,5,5,6,6],"right_children":[2,4,6,8,10,12,14,-1,-1,-1,-1,-1,-1,-1,-1],"split_conditions":[1.8148E1,9.7E0,2.7914377E1,3.2E1,1.1090103E1,1.0429132E1,1.6E1,-1.22490525E-2,-3.0577436E-2,-3.989264E-3,2.5730752E-3,4.305935E-3,-1.0906636E-2,1.4051951E-2,3.2164194E-3],"split_indices":[34,58,26,0,47,47,4,0,0,0,0,0,0,0,0],"split_type":[0,0,0,0,0,0,0,0,0,0,0,0,0,0,0],"sum_hessian":[3.36E2,2.34E2,1.02E2,5E0,2.29E2,2.1E1,8.1E1,3E0,2E0,1.66E2,6.3E1,1.1E1,1E1,4.2E1,3.9E1],"tree_param":{"num_deleted":"0","num_feature":"65","num_nodes":"15","size_leaf_vector":"1"}},{"base_weights":[1.1595661E-3,6.4552784E-2,-1.04172155E-1,5.2315712E-2,4.7393355E-1,-7.1669534E-2,-3.613955E-1,1.4557181E-3,1.1782597E-2,1.0120614E-2,2.7954554E-2,2.9253247E-4,-7.7466965E-3,-9.946513E-3,-2.4772106E-2],"categories":[],"categories_nodes":[],"categories_segments":[],"categories_sizes":[],"default_left":[0,0,0,0,0,0,0,0,0,0,0,0,0,0,0],"id":83,"left_children":[1,3,5,7,9,11,13,-1,-1,-1,-1,-1,-1,-1,-1],"loss_changes":[2.2569804E0,1.0322363E0,1.0358739E0,8.693907E-1,2.5565505E-2,7.36739E-1,2.063322E-1,0E0,0E0,0E0,0E0,0E0,0E0,0E0,0E0],"parents":[2147483647,0,0,1,1,2,2,3,3,4,4,5,5,6,6],"right_children":[2,4,6,8,10,12,14,-1,-1,-1,-1,-1,-1,-1,-1],"split_conditions":[5E-1,2.6E1,1.0243E3,1.692383E1,1.0218E3,7.7975784E1,5.755984E1,1.4557181E-3,1.1782597E-2,1.0120614E-2,2.7954554E-2,2.9253247E-4,-7.7466965E-3,-9.946513E-3,-2.4772106E-2],"split_indices":[56,58,18,53,16,31,24,0,0,0,0,0,0,0,0],"split_type":[0,0,0,0,0,0,0,0,0,0,0,0,0,0,0],"sum_hessian":[3.36E2,2.1E2,1.26E2,2.05E2,5E0,1.13E2,1.3E1,1.83E2,2.2E1,2E0,3E0,5.9E1,5.4E1,7E0,6E0],"tree_param":{"num_deleted":"0","num_feature":"65","num_nodes":"15","size_leaf_vector":"1"}},{"base_weights":[1.1289692E-3,-4.8317954E-2,1.2759711E-1,-3.2526E-2,-3.0430588E-1,-3.0685572E-2,1.84565E-1,1.469897E-3,-4.47673E-3,-2.3596788E-2,-7.937045E-3,9.897647E-4,-1.5663957E-2,1.0694399E-2,-1.1970558E-2],"categories":[],"categories_nodes":[],"categories_segments":[],"categories_sizes":[],"default_left":[0,0,0,0,0,0,0,0,0,0,0,0,0,0,0],"id":84,"left_children":[1,3,5,7,9,11,13,-1,-1,-1,-1,-1,-1,-1,-1],"loss_changes":[2.1135812E0,9.724416E-1,8.6228144E-1,8.145773E-1,2.6669908E-1,3.7710622E-1,9.2146397E-1,0E0,0E0,0E0,0E0,0E0,0E0,0E0,0E0],"parents":[2147483647,0,0,1,1,2,2,3,3,4,4,5,5,6,6],"right_children":[2,4,6,8,10,12,14,-1,-1,-1,-1,-1,-1,-1,-1],"split_conditions":[1.99E1,1.0274E3,7.289445E0,6.775043E1,1.1246759E1,3.4361038E2,3.5120953E2,1.469897E-3,-4.47673E-3,-2.3596788E-2,-7.937045E-3,9.897647E-4,-1.5663957E-2,1.0694399E-2,-1.1970558E-2],"split_indices":[58,20,48,28,50,45,44,0,0,0,0,0,0,0,